{"learner":{"attributes":{},"feature_names":[],"feature_types":[],"gradient_booster":{"model":{"gbtree_model_param":{"num_parallel_tree":"1","num_trees":"1500"},"iteration_indptr":[0,2,4,6,8,10,12,14,16,18,20,22,24,26,28,30,32,34,36,38,40,42,44,46,48,50,52,54,56,58,60,62,64,66,68,70,72,74,76,78,80,82,84,86,88,90,92,94,96,98,100,102,104,106,108,110,112,114,116,118,120,122,124,126,128,130,132,134,136,138,140,142,144,146,148,150,152,154,156,158,160,162,164,166,168,170,172,174,176,178,180,182,184,186,188,190,192,194,196,198,200,202,204,206,208,210,212,214,216,218,220,222,224,226,228,230,232,234,236,238,240,242,244,246,248,250,252,254,256,258,260,262,264,266,268,270,272,274,276,278,280,282,284,286,288,290,292,294,296,298,300,302,304,306,308,310,312,314,316,318,320,322,324,326,328,330,332,334,336,338,340,342,344,346,348,350,352,354,356,358,360,362,364,366,368,370,372,374,376,378,380,382,384,386,388,390,392,394,396,398,400,402,404,406,408,410,412,414,416,418,420,422,424,426,428,430,432,434,436,438,440,442,444,446,448,450,452,454,456,458,460,462,464,466,468,470,472,474,476,478,480,482,484,486,488,490,492,494,496,498,500,502,504,506,508,510,512,514,516,518,520,522,524,526,528,530,532,534,536,538,540,542,544,546,548,550,552,554,556,558,560,562,564,566,568,570,572,574,576,578,580,582,584,586,588,590,592,594,596,598,600,602,604,606,608,610,612,614,616,618,620,622,624,626,628,630,632,634,636,638,640,642,644,646,648,650,652,654,656,658,660,662,664,666,668,670,672,674,676,678,680,682,684,686,688,690,692,694,696,698,700,702,704,706,708,710,712,714,716,718,720,722,724,726,728,730,732,734,736,738,740,742,744,746,748,750,752,754,756,758,760,762,764,766,768,770,772,774,776,778,780,782,784,786,788,790,792,794,796,798,800,802,804,806,808,810,812,814,816,818,820,822,824,826,828,830,832,834,836,838,840,842,844,846,848,850,852,854,856,858,860,862,864,866,868,870,872,874,876,878,880,882,884,886,888,890,892,894,896,898,900,902,904,906,908,910,912,914,916,918,920,922,924,926,928,930,932,934,936,938,940,942,944,946,948,950,952,954,956,958,960,962,964,966,968,970,972,974,976,978,980,982,984,986,988,990,992,994,996,998,1000,1002,1004,1006,1008,1010,1012,1014,1016,1018,1020,1022,1024,1026,1028,1030,1032,1034,1036,1038,1040,1042,1044,1046,1048,1050,1052,1054,1056,1058,1060,1062,1064,1066,1068,1070,1072,1074,1076,1078,1080,1082,1084,1086,1088,1090,1092,1094,1096,1098,1100,1102,1104,1106,1108,1110,1112,1114,1116,1118,1120,1122,1124,1126,1128,1130,1132,1134,1136,1138,1140,1142,1144,1146,1148,1150,1152,1154,1156,1158,1160,1162,1164,1166,1168,1170,1172,1174,1176,1178,1180,1182,1184,1186,1188,1190,1192,1194,1196,1198,1200,1202,1204,1206,1208,1210,1212,1214,1216,1218,1220,1222,1224,1226,1228,1230,1232,1234,1236,1238,1240,1242,1244,1246,1248,1250,1252,1254,1256,1258,1260,1262,1264,1266,1268,1270,1272,1274,1276,1278,1280,1282,1284,1286,1288,1290,1292,1294,1296,1298,1300,1302,1304,1306,1308,1310,1312,1314,1316,1318,1320,1322,1324,1326,1328,1330,1332,1334,1336,1338,1340,1342,1344,1346,1348,1350,1352,1354,1356,1358,1360,1362,1364,1366,1368,1370,1372,1374,1376,1378,1380,1382,1384,1386,1388,1390,1392,1394,1396,1398,1400,1402,1404,1406,1408,1410,1412,1414,1416,1418,1420,1422,1424,1426,1428,1430,1432,1434,1436,1438,1440,1442,1444,1446,1448,1450,1452,1454,1456,1458,1460,1462,1464,1466,1468,1470,1472,1474,1476,1478,1480,1482,1484,1486,1488,1490,1492,1494,1496,1498,1500],"tree_info":[0,1,0,1,0,1,0,1,0,1,0,1,0,1,0,1,0,1,0,1,0,1,0,1,0,1,0,1,0,1,0,1,0,1,0,1,0,1,0,1,0,1,0,1,0,1,0,1,0,1,0,1,0,1,0,1,0,1,0,1,0,1,0,1,0,1,0,1,0,1,0,1,0,1,0,1,0,1,0,1,0,1,0,1,0,1,0,1,0,1,0,1,0,1,0,1,0,1,0,1,0,1,0,1,0,1,0,1,0,1,0,1,0,1,0,1,0,1,0,1,0,1,0,1,0,1,0,1,0,1,0,1,0,1,0,1,0,1,0,1,0,1,0,1,0,1,0,1,0,1,0,1,0,1,0,1,0,1,0,1,0,1,0,1,0,1,0,1,0,1,0,1,0,1,0,1,0,1,0,1,0,1,0,1,0,1,0,1,0,1,0,1,0,1,0,1,0,1,0,1,0,1,0,1,0,1,0,1,0,1,0,1,0,1,0,1,0,1,0,1,0,1,0,1,0,1,0,1,0,1,0,1,0,1,0,1,0,1,0,1,0,1,0,1,0,1,0,1,0,1,0,1,0,1,0,1,0,1,0,1,0,1,0,1,0,1,0,1,0,1,0,1,0,1,0,1,0,1,0,1,0,1,0,1,0,1,0,1,0,1,0,1,0,1,0,1,0,1,0,1,0,1,0,1,0,1,0,1,0,1,0,1,0,1,0,1,0,1,0,1,0,1,0,1,0,1,0,1,0,1,0,1,0,1,0,1,0,1,0,1,0,1,0,1,0,1,0,1,0,1,0,1,0,1,0,1,0,1,0,1,0,1,0,1,0,1,0,1,0,1,0,1,0,1,0,1,0,1,0,1,0,1,0,1,0,1,0,1,0,1,0,1,0,1,0,1,0,1,0,1,0,1,0,1,0,1,0,1,0,1,0,1,0,1,0,1,0,1,0,1,0,1,0,1,0,1,0,1,0,1,0,1,0,1,0,1,0,1,0,1,0,1,0,1,0,1,0,1,0,1,0,1,0,1,0,1,0,1,0,1,0,1,0,1,0,1,0,1,0,1,0,1,0,1,0,1,0,1,0,1,0,1,0,1,0,1,0,1,0,1,0,1,0,1,0,1,0,1,0,1,0,1,0,1,0,1,0,1,0,1,0,1,0,1,0,1,0,1,0,1,0,1,0,1,0,1,0,1,0,1,0,1,0,1,0,1,0,1,0,1,0,1,0,1,0,1,0,1,0,1,0,1,0,1,0,1,0,1,0,1,0,1,0,1,0,1,0,1,0,1,0,1,0,1,0,1,0,1,0,1,0,1,0,1,0,1,0,1,0,1,0,1,0,1,0,1,0,1,0,1,0,1,0,1,0,1,0,1,0,1,0,1,0,1,0,1,0,1,0,1,0,1,0,1,0,1,0,1,0,1,0,1,0,1,0,1,0,1,0,1,0,1,0,1,0,1,0,1,0,1,0,1,0,1,0,1,0,1,0,1,0,1,0,1,0,1,0,1,0,1,0,1,0,1,0,1,0,1,0,1,0,1,0,1,0,1,0,1,0,1,0,1,0,1,0,1,0,1,0,1,0,1,0,1,0,1,0,1,0,1,0,1,0,1,0,1,0,1,0,1,0,1,0,1,0,1,0,1,0,1,0,1,0,1,0,1,0,1,0,1,0,1,0,1,0,1,0,1,0,1,0,1,0,1,0,1,0,1,0,1,0,1,0,1,0,1,0,1,0,1,0,1,0,1,0,1,0,1,0,1,0,1,0,1,0,1,0,1,0,1,0,1,0,1,0,1,0,1,0,1,0,1,0,1,0,1,0,1,0,1,0,1,0,1,0,1,0,1,0,1,0,1,0,1,0,1,0,1,0,1,0,1,0,1,0,1,0,1,0,1,0,1,0,1,0,1,0,1,0,1,0,1,0,1,0,1,0,1,0,1,0,1,0,1,0,1,0,1,0,1,0,1,0,1,0,1,0,1,0,1,0,1,0,1,0,1,0,1,0,1,0,1,0,1,0,1,0,1,0,1,0,1,0,1,0,1,0,1,0,1,0,1,0,1,0,1,0,1,0,1,0,1,0,1,0,1,0,1,0,1,0,1,0,1,0,1,0,1,0,1,0,1,0,1,0,1,0,1,0,1,0,1,0,1,0,1,0,1,0,1,0,1,0,1,0,1,0,1,0,1,0,1,0,1,0,1,0,1,0,1,0,1,0,1,0,1,0,1,0,1,0,1,0,1,0,1,0,1,0,1,0,1,0,1,0,1,0,1,0,1,0,1,0,1,0,1,0,1,0,1,0,1,0,1,0,1,0,1,0,1,0,1,0,1,0,1,0,1,0,1,0,1,0,1,0,1,0,1,0,1,0,1,0,1,0,1,0,1,0,1,0,1,0,1,0,1,0,1,0,1,0,1,0,1,0,1,0,1,0,1,0,1,0,1,0,1,0,1,0,1,0,1,0,1,0,1,0,1,0,1,0,1,0,1,0,1,0,1,0,1,0,1,0,1,0,1,0,1,0,1,0,1,0,1,0,1,0,1,0,1,0,1,0,1,0,1,0,1,0,1,0,1,0,1,0,1,0,1,0,1,0,1,0,1,0,1,0,1,0,1,0,1,0,1,0,1,0,1,0,1,0,1,0,1,0,1,0,1,0,1,0,1,0,1,0,1,0,1,0,1,0,1,0,1,0,1,0,1,0,1,0,1,0,1,0,1,0,1,0,1,0,1,0,1,0,1,0,1,0,1,0,1,0,1,0,1,0,1,0,1,0,1,0,1,0,1,0,1,0,1,0,1,0,1,0,1,0,1,0,1,0,1,0,1,0,1,0,1,0,1,0,1,0,1,0,1,0,1,0,1,0,1,0,1,0,1,0,1,0,1,0,1,0,1,0,1,0,1,0,1,0,1,0,1,0,1,0,1,0,1,0,1,0,1,0,1,0,1,0,1,0,1,0,1,0,1,0,1,0,1,0,1,0,1,0,1,0,1,0,1,0,1,0,1,0,1,0,1,0,1,0,1,0,1,0,1,0,1,0,1,0,1,0,1,0,1,0,1,0,1,0,1,0,1,0,1,0,1,0,1,0,1,0,1,0,1,0,1,0,1,0,1,0,1,0,1,0,1,0,1,0,1,0,1,0,1,0,1,0,1,0,1,0,1,0,1,0,1,0,1,0,1,0,1,0,1,0,1,0,1,0,1,0,1,0,1,0,1,0,1,0,1,0,1,0,1,0,1,0,1,0,1,0,1,0,1,0,1,0,1,0,1,0,1,0,1,0,1,0,1,0,1,0,1,0,1,0,1,0,1,0,1,0,1,0,1,0,1,0,1,0,1,0,1,0,1,0,1,0,1,0,1,0,1,0,1,0,1,0,1],"trees":[{"base_weights":[-9.844994E-2,-2.5041643E-1,3.6734694E-1,-9.060118E-2,-5.530547E-1,5.256724E-1,5.524862E-3,-2.4242423E-4,-4.300518E-3,8.181818E-3,-5.7585645E-3,3.7956205E-3,8.10219E-3,4.054054E-3,-2.6605504E-3],"categories":[],"categories_nodes":[],"categories_segments":[],"categories_sizes":[],"default_left":[0,0,0,0,0,0,0,0,0,0,0,0,0,0,0],"id":0,"left_children":[1,3,5,7,9,11,13,-1,-1,-1,-1,-1,-1,-1,-1],"loss_changes":[8.457451E1,4.350366E1,1.6839073E1,1.3290896E1,1.0195076E1,8.194595E0,9.936116E0,0E0,0E0,0E0,0E0,0E0,0E0,0E0,0E0],"parents":[2147483647,0,0,1,1,2,2,3,3,4,4,5,5,6,6],"right_children":[2,4,6,8,10,12,14,-1,-1,-1,-1,-1,-1,-1,-1],"split_conditions":[2.2E1,1.9E1,2.1E1,6.5E0,9.4E0,1.9E1,4.58E-1,-2.4242423E-4,-4.300518E-3,8.181818E-3,-5.7585645E-3,3.7956205E-3,8.10219E-3,4.054054E-3,-2.6605504E-3],"split_indices":[27,80,81,25,60,35,59,0,0,0,0,0,0,0,0],"split_type":[0,0,0,0,0,0,0,0,0,0,0,0,0,0,0],"sum_hessian":[1.1925E3,8.995E2,2.93E2,5.895E2,3.1E2,2.035E2,8.95E1,4.94E2,9.55E1,4.5E0,3.055E2,1.36E2,6.75E1,3.6E1,5.35E1],"tree_param":{"num_deleted":"0","num_feature":"106","num_nodes":"15","size_leaf_vector":"1"}},{"base_weights":[9.844994E-2,2.5041643E-1,-3.6734694E-1,9.060118E-2,5.530547E-1,-5.256724E-1,-5.524862E-3,2.4242423E-4,4.300518E-3,-8.181818E-3,5.7585645E-3,-3.7956205E-3,-8.10219E-3,-4.054054E-3,2.6605504E-3],"categories":[],"categories_nodes":[],"categories_segments":[],"categories_sizes":[],"default_left":[0,0,0,0,0,0,0,0,0,0,0,0,0,0,0],"id":1,"left_children":[1,3,5,7,9,11,13,-1,-1,-1,-1,-1,-1,-1,-1],"loss_changes":[8.457451E1,4.350366E1,1.6839073E1,1.3290896E1,1.0195076E1,8.194595E0,9.936116E0,0E0,0E0,0E0,0E0,0E0,0E0,0E0,0E0],"parents":[2147483647,0,0,1,1,2,2,3,3,4,4,5,5,6,6],"right_children":[2,4,6,8,10,12,14,-1,-1,-1,-1,-1,-1,-1,-1],"split_conditions":[2.2E1,1.9E1,2.1E1,6.5E0,9.4E0,1.9E1,4.58E-1,2.4242423E-4,4.300518E-3,-8.181818E-3,5.7585645E-3,-3.7956205E-3,-8.10219E-3,-4.054054E-3,2.6605504E-3],"split_indices":[27,80,81,25,60,35,59,0,0,0,0,0,0,0,0],"split_type":[0,0,0,0,0,0,0,0,0,0,0,0,0,0,0],"sum_hessian":[1.1925E3,8.995E2,2.93E2,5.895E2,3.1E2,2.035E2,8.95E1,4.94E2,9.55E1,4.5E0,3.055E2,1.36E2,6.75E1,3.6E1,5.35E1],"tree_param":{"num_deleted":"0","num_feature":"106","num_nodes":"15","size_leaf_vector":"1"}},{"base_weights":[-9.745767E-2,-2.47918E-1,3.6372784E-1,-8.970313E-2,-5.475347E-1,5.2049017E-1,5.4850415E-3,-2.4000472E-4,-4.2580366E-3,8.115322E-3,-5.701355E-3,-7.4189424E-4,5.8714896E-3,4.014673E-3,-2.634452E-3],"categories":[],"categories_nodes":[],"categories_segments":[],"categories_sizes":[],"default_left":[0,0,0,0,0,0,0,0,0,0,0,0,0,0,0],"id":2,"left_children":[1,3,5,7,9,11,13,-1,-1,-1,-1,-1,-1,-1,-1],"loss_changes":[8.290593E1,4.2637447E1,1.6507473E1,1.3029575E1,1.0015053E1,8.149815E0,9.743152E0,0E0,0E0,0E0,0E0,0E0,0E0,0E0,0E0],"parents":[2147483647,0,0,1,1,2,2,3,3,4,4,5,5,6,6],"right_children":[2,4,6,8,10,12,14,-1,-1,-1,-1,-1,-1,-1,-1],"split_conditions":[2.2E1,1.9E1,2.1E1,6.5E0,9.4E0,2.2E1,4.58E-1,-2.4000472E-4,-4.2580366E-3,8.115322E-3,-5.701355E-3,-7.4189424E-4,5.8714896E-3,4.014673E-3,-2.634452E-3],"split_indices":[27,80,81,25,60,28,59,0,0,0,0,0,0,0,0],"split_type":[0,0,0,0,0,0,0,0,0,0,0,0,0,0,0],"sum_hessian":[1.1924805E3,8.994878E2,2.9299265E2,5.894982E2,3.0998956E2,2.034936E2,8.949903E1,4.94E2,9.549824E1,4.4996986E0,3.0548987E2,2.04995E1,1.8299411E2,3.599941E1,5.3499622E1],"tree_param":{"num_deleted":"0","num_feature":"106","num_nodes":"15","size_leaf_vector":"1"}},{"base_weights":[9.7457714E-2,2.4791804E-1,-3.6372784E-1,8.970321E-2,5.475347E-1,-5.2049017E-1,-5.4850415E-3,2.4000563E-4,4.2580366E-3,-8.115322E-3,5.701355E-3,7.4189436E-4,-5.8714896E-3,-4.014673E-3,2.634452E-3],"categories":[],"categories_nodes":[],"categories_segments":[],"categories_sizes":[],"default_left":[0,0,0,0,0,0,0,0,0,0,0,0,0,0,0],"id":3,"left_children":[1,3,5,7,9,11,13,-1,-1,-1,-1,-1,-1,-1,-1],"loss_changes":[8.290594E1,4.2637432E1,1.6507473E1,1.302957E1,1.0015053E1,8.149811E0,9.743152E0,0E0,0E0,0E0,0E0,0E0,0E0,0E0,0E0],"parents":[2147483647,0,0,1,1,2,2,3,3,4,4,5,5,6,6],"right_children":[2,4,6,8,10,12,14,-1,-1,-1,-1,-1,-1,-1,-1],"split_conditions":[2.2E1,1.9E1,2.1E1,6.5E0,9.4E0,2.2E1,4.58E-1,2.4000563E-4,4.2580366E-3,-8.115322E-3,5.701355E-3,7.4189436E-4,-5.8714896E-3,-4.014673E-3,2.634452E-3],"split_indices":[27,80,81,25,60,28,59,0,0,0,0,0,0,0,0],"split_type":[0,0,0,0,0,0,0,0,0,0,0,0,0,0,0],"sum_hessian":[1.1924805E3,8.994878E2,2.9299265E2,5.894982E2,3.0998956E2,2.034936E2,8.949903E1,4.9399997E2,9.549824E1,4.4996986E0,3.0548987E2,2.0499498E1,1.8299411E2,3.599941E1,5.3499622E1],"tree_param":{"num_deleted":"0","num_feature":"106","num_nodes":"15","size_leaf_vector":"1"}},{"base_weights":[-9.6484005E-2,-2.4545112E-1,3.6013788E-1,-8.881454E-2,-5.4210573E-1,5.153548E-1,5.4456927E-3,-2.3760965E-4,-4.2161276E-3,8.050239E-3,-5.6450837E-3,3.7079293E-3,7.969831E-3,3.9758007E-3,-2.6086434E-3],"categories":[],"categories_nodes":[],"categories_segments":[],"categories_sizes":[],"default_left":[0,0,0,0,0,0,0,0,0,0,0,0,0,0,0],"id":4,"left_children":[1,3,5,7,9,11,13,-1,-1,-1,-1,-1,-1,-1,-1],"loss_changes":[8.1267044E1,4.17931E1,1.618161E1,1.2773985E1,9.838928E0,8.029259E0,9.554169E0,0E0,0E0,0E0,0E0,0E0,0E0,0E0,0E0],"parents":[2147483647,0,0,1,1,2,2,3,3,4,4,5,5,6,6],"right_children":[2,4,6,8,10,12,14,-1,-1,-1,-1,-1,-1,-1,-1],"split_conditions":[2.2E1,1.9E1,2.1E1,6.5E0,9.4E0,1.9E1,4.58E-1,-2.3760965E-4,-4.2161276E-3,8.050239E-3,-5.6450837E-3,3.7079293E-3,7.969831E-3,3.9758007E-3,-2.6086434E-3],"split_indices":[27,80,81,25,60,35,59,0,0,0,0,0,0,0,0],"split_type":[0,0,0,0,0,0,0,0,0,0,0,0,0,0,0],"sum_hessian":[1.1924238E3,8.9945154E2,2.9297223E2,5.8949286E2,3.0995868E2,2.0347606E2,8.949616E1,4.9399988E2,9.5493E1,4.498805E0,3.0545987E2,1.3598868E2,6.748738E1,3.5997658E1,5.3498505E1],"tree_param":{"num_deleted":"0","num_feature":"106","num_nodes":"15","size_leaf_vector":"1"}},{"base_weights":[9.6483976E-2,2.4545108E-1,-3.6013788E-1,8.881453E-2,5.421057E-1,-5.153548E-1,-5.445645E-3,2.3760965E-4,4.2161266E-3,-8.050239E-3,5.6450823E-3,-3.7079293E-3,-7.969831E-3,-3.9758007E-3,2.6086445E-3],"categories":[],"categories_nodes":[],"categories_segments":[],"categories_sizes":[],"default_left":[0,0,0,0,0,0,0,0,0,0,0,0,0,0,0],"id":5,"left_children":[1,3,5,7,9,11,13,-1,-1,-1,-1,-1,-1,-1,-1],"loss_changes":[8.126703E1,4.1793095E1,1.6181614E1,1.2773979E1,9.838921E0,8.029263E0,9.554171E0,0E0,0E0,0E0,0E0,0E0,0E0,0E0,0E0],"parents":[2147483647,0,0,1,1,2,2,3,3,4,4,5,5,6,6],"right_children":[2,4,6,8,10,12,14,-1,-1,-1,-1,-1,-1,-1,-1],"split_conditions":[2.2E1,1.9E1,2.1E1,6.5E0,9.4E0,1.9E1,4.58E-1,2.3760965E-4,4.2161266E-3,-8.050239E-3,5.6450823E-3,-3.7079293E-3,-7.969831E-3,-3.9758007E-3,2.6086445E-3],"split_indices":[27,80,81,25,60,35,59,0,0,0,0,0,0,0,0],"split_type":[0,0,0,0,0,0,0,0,0,0,0,0,0,0,0],"sum_hessian":[1.1924238E3,8.994516E2,2.9297223E2,5.8949286E2,3.0995868E2,2.0347606E2,8.9496155E1,4.9399988E2,9.5493004E1,4.498805E0,3.054599E2,1.3598868E2,6.748739E1,3.5997658E1,5.34985E1],"tree_param":{"num_deleted":"0","num_feature":"106","num_nodes":"15","size_leaf_vector":"1"}},{"base_weights":[-9.551751E-2,-2.430151E-1,3.5662296E-1,-8.7935284E-2,-5.367649E-1,5.1033294E-1,5.406666E-3,-2.3523867E-4,-4.174776E-3,7.986523E-3,-5.5897194E-3,-7.7814556E-4,5.762963E-3,3.937425E-3,-2.5831233E-3],"categories":[],"categories_nodes":[],"categories_segments":[],"categories_sizes":[],"default_left":[0,0,0,0,0,0,0,0,0,0,0,0,0,0,0],"id":6,"left_children":[1,3,5,7,9,11,13,-1,-1,-1,-1,-1,-1,-1,-1],"loss_changes":[7.9669395E1,4.0969856E1,1.5865601E1,1.2523966E1,9.666603E0,7.9765854E0,9.369078E0,0E0,0E0,0E0,0E0,0E0,0E0,0E0,0E0],"parents":[2147483647,0,0,1,1,2,2,3,3,4,4,5,5,6,6],"right_children":[2,4,6,8,10,12,14,-1,-1,-1,-1,-1,-1,-1,-1],"split_conditions":[2.2E1,1.9E1,2.1E1,6.5E0,9.4E0,2.2E1,4.58E-1,-2.3523867E-4,-4.174776E-3,7.986523E-3,-5.5897194E-3,-7.7814556E-4,5.762963E-3,3.937425E-3,-2.5831233E-3],"split_indices":[27,80,81,25,60,28,59,0,0,0,0,0,0,0,0],"split_type":[0,0,0,0,0,0,0,0,0,0,0,0,0,0,0],"sum_hessian":[1.19233E3,8.993921E2,2.929378E2,5.8948413E2,3.0990796E2,2.0344637E2,8.949144E1,4.9399973E2,9.548441E1,4.4973335E0,3.054106E2,2.0498306E1,1.8294806E2,3.5994778E1,5.3496662E1],"tree_param":{"num_deleted":"0","num_feature":"106","num_nodes":"15","size_leaf_vector":"1"}},{"base_weights":[9.551749E-2,2.4301505E-1,-3.5662293E-1,8.7935284E-2,5.367648E-1,-5.1033294E-1,-5.406618E-3,2.3523867E-4,4.174776E-3,-7.986524E-3,5.589718E-3,7.781456E-4,-5.762963E-3,-3.937425E-3,2.5831242E-3],"categories":[],"categories_nodes":[],"categories_segments":[],"categories_sizes":[],"default_left":[0,0,0,0,0,0,0,0,0,0,0,0,0,0,0],"id":7,"left_children":[1,3,5,7,9,11,13,-1,-1,-1,-1,-1,-1,-1,-1],"loss_changes":[7.966937E1,4.0969837E1,1.5865604E1,1.2523966E1,9.666603E0,7.9765854E0,9.36908E0,0E0,0E0,0E0,0E0,0E0,0E0,0E0,0E0],"parents":[2147483647,0,0,1,1,2,2,3,3,4,4,5,5,6,6],"right_children":[2,4,6,8,10,12,14,-1,-1,-1,-1,-1,-1,-1,-1],"split_conditions":[2.2E1,1.9E1,2.1E1,6.5E0,9.4E0,2.2E1,4.58E-1,2.3523867E-4,4.174776E-3,-7.986524E-3,5.589718E-3,7.781456E-4,-5.762963E-3,-3.937425E-3,2.5831242E-3],"split_indices":[27,80,81,25,60,28,59,0,0,0,0,0,0,0,0],"split_type":[0,0,0,0,0,0,0,0,0,0,0,0,0,0,0],"sum_hessian":[1.19233E3,8.993921E2,2.929378E2,5.8948413E2,3.0990796E2,2.0344637E2,8.949143E1,4.9399973E2,9.548441E1,4.4973335E0,3.054106E2,2.0498306E1,1.8294806E2,3.5994778E1,5.349666E1],"tree_param":{"num_deleted":"0","num_feature":"106","num_nodes":"15","size_leaf_vector":"1"}},{"base_weights":[-9.456898E-2,-2.4060929E-1,3.5313487E-1,-8.706524E-2,-5.315096E-1,5.0535405E-1,5.367976E-3,-2.3289151E-4,-4.1339705E-3,7.924133E-3,-5.5352366E-3,3.6226728E-3,7.842592E-3,3.899536E-3,-2.5578868E-3],"categories":[],"categories_nodes":[],"categories_segments":[],"categories_sizes":[],"default_left":[0,0,0,0,0,0,0,0,0,0,0,0,0,0,0],"id":8,"left_children":[1,3,5,7,9,11,13,-1,-1,-1,-1,-1,-1,-1,-1],"loss_changes":[7.80998E1,4.016699E1,1.5554932E1,1.2279378E1,9.497955E0,7.8732567E0,9.187788E0,0E0,0E0,0E0,0E0,0E0,0E0,0E0,0E0],"parents":[2147483647,0,0,1,1,2,2,3,3,4,4,5,5,6,6],"right_children":[2,4,6,8,10,12,14,-1,-1,-1,-1,-1,-1,-1,-1],"split_conditions":[2.2E1,1.9E1,2.1E1,6.5E0,9.4E0,1.9E1,4.58E-1,-2.3289151E-4,-4.1339705E-3,7.924133E-3,-5.5352366E-3,3.6226728E-3,7.842592E-3,3.899536E-3,-2.5578868E-3],"split_indices":[27,80,81,25,60,35,59,0,0,0,0,0,0,0,0],"split_type":[0,0,0,0,0,0,0,0,0,0,0,0,0,0,0],"sum_hessian":[1.1922012E3,8.993101E2,2.9289102E2,5.894721E2,3.09838E2,2.0340608E2,8.948492E1,4.9399957E2,9.547257E1,4.4952984E0,3.053427E2,1.3595566E2,6.745043E1,3.5990807E1,5.3494114E1],"tree_param":{"num_deleted":"0","num_feature":"106","num_nodes":"15","size_leaf_vector":"1"}},{"base_weights":[9.456892E-2,2.4060923E-1,-3.531349E-1,8.706514E-2,5.315096E-1,-5.0535405E-1,-5.368024E-3,2.3289032E-4,4.1339705E-3,-7.924133E-3,5.5352366E-3,-3.622673E-3,-7.842592E-3,-3.899536E-3,2.5578858E-3],"categories":[],"categories_nodes":[],"categories_segments":[],"categories_sizes":[],"default_left":[0,0,0,0,0,0,0,0,0,0,0,0,0,0,0],"id":9,"left_children":[1,3,5,7,9,11,13,-1,-1,-1,-1,-1,-1,-1,-1],"loss_changes":[7.80998E1,4.0167007E1,1.5554932E1,1.2279385E1,9.497955E0,7.873253E0,9.187786E0,0E0,0E0,0E0,0E0,0E0,0E0,0E0,0E0],"parents":[2147483647,0,0,1,1,2,2,3,3,4,4,5,5,6,6],"right_children":[2,4,6,8,10,12,14,-1,-1,-1,-1,-1,-1,-1,-1],"split_conditions":[2.2E1,1.9E1,2.1E1,6.5E0,9.4E0,1.9E1,4.58E-1,2.3289032E-4,4.1339705E-3,-7.924133E-3,5.5352366E-3,-3.622673E-3,-7.842592E-3,-3.899536E-3,2.5578858E-3],"split_indices":[27,80,81,25,60,35,59,0,0,0,0,0,0,0,0],"split_type":[0,0,0,0,0,0,0,0,0,0,0,0,0,0,0],"sum_hessian":[1.1922012E3,8.993101E2,2.9289102E2,5.894721E2,3.09838E2,2.034061E2,8.9484924E1,4.9399957E2,9.547257E1,4.4952984E0,3.053427E2,1.3595566E2,6.745043E1,3.5990807E1,5.3494118E1],"tree_param":{"num_deleted":"0","num_feature":"106","num_nodes":"15","size_leaf_vector":"1"}},{"base_weights":[-9.36271E-2,-2.3823309E-1,3.4971893E-1,-8.620416E-2,-5.2633756E-1,5.004839E-1,5.329667E-3,-2.3056607E-4,-4.0937E-3,7.863027E-3,-5.4816115E-3,-8.1318483E-4,5.657854E-3,-1.63841E-3,5.910691E-3],"categories":[],"categories_nodes":[],"categories_segments":[],"categories_sizes":[],"default_left":[0,0,0,0,0,0,0,0,0,0,0,0,0,0,0],"id":10,"left_children":[1,3,5,7,9,11,13,-1,-1,-1,-1,-1,-1,-1,-1],"loss_changes":[7.656952E1,3.9383865E1,1.5253574E1,1.2040092E1,9.332909E0,7.809971E0,9.062169E0,0E0,0E0,0E0,0E0,0E0,0E0,0E0,0E0],"parents":[2147483647,0,0,1,1,2,2,3,3,4,4,5,5,6,6],"right_children":[2,4,6,8,10,12,14,-1,-1,-1,-1,-1,-1,-1,-1],"split_conditions":[2.2E1,1.9E1,2.1E1,6.5E0,9.4E0,2.2E1,2.8E1,-2.3056607E-4,-4.0937E-3,7.863027E-3,-5.4816115E-3,-8.1318483E-4,5.657854E-3,-1.63841E-3,5.910691E-3],"split_indices":[27,80,81,25,60,28,85,0,0,0,0,0,0,0,0],"split_type":[0,0,0,0,0,0,0,0,0,0,0,0,0,0,0],"sum_hessian":[1.1920374E3,8.992063E2,2.928311E2,5.894569E2,3.097494E2,2.0335442E2,8.947667E1,4.9399933E2,9.545756E1,4.4927144E0,3.0525668E2,2.0496471E1,1.8285794E2,6.9984375E1,1.9492294E1],"tree_param":{"num_deleted":"0","num_feature":"106","num_nodes":"15","size_leaf_vector":"1"}},{"base_weights":[9.362713E-2,2.3823316E-1,-3.4971902E-1,8.620422E-2,5.263377E-1,-5.0048393E-1,-5.329715E-3,2.3056699E-4,4.093699E-3,-7.863027E-3,5.4816124E-3,8.1318483E-4,-5.657855E-3,1.6384094E-3,-5.910691E-3],"categories":[],"categories_nodes":[],"categories_segments":[],"categories_sizes":[],"default_left":[0,0,0,0,0,0,0,0,0,0,0,0,0,0,0],"id":11,"left_children":[1,3,5,7,9,11,13,-1,-1,-1,-1,-1,-1,-1,-1],"loss_changes":[7.656957E1,3.938386E1,1.5253578E1,1.204008E1,9.332909E0,7.809971E0,9.062167E0,0E0,0E0,0E0,0E0,0E0,0E0,0E0,0E0],"parents":[2147483647,0,0,1,1,2,2,3,3,4,4,5,5,6,6],"right_children":[2,4,6,8,10,12,14,-1,-1,-1,-1,-1,-1,-1,-1],"split_conditions":[2.2E1,1.9E1,2.1E1,6.5E0,9.4E0,2.2E1,2.8E1,2.3056699E-4,4.093699E-3,-7.863027E-3,5.4816124E-3,8.1318483E-4,-5.657855E-3,1.6384094E-3,-5.910691E-3],"split_indices":[27,80,81,25,60,28,85,0,0,0,0,0,0,0,0],"split_type":[0,0,0,0,0,0,0,0,0,0,0,0,0,0,0],"sum_hessian":[1.1920374E3,8.9920624E2,2.928311E2,5.8945685E2,3.097494E2,2.0335442E2,8.947667E1,4.939993E2,9.5457565E1,4.4927144E0,3.0525668E2,2.0496471E1,1.8285794E2,6.9984375E1,1.9492294E1],"tree_param":{"num_deleted":"0","num_feature":"106","num_nodes":"15","size_leaf_vector":"1"}},{"base_weights":[-9.269996E-2,-2.3588605E-1,3.46334E-1,-8.535217E-2,-5.212465E-1,4.9565327E-1,5.324123E-3,-2.2826537E-4,-4.053951E-3,7.8031644E-3,-5.428821E-3,3.539738E-3,7.7201626E-3,3.8387217E-3,-2.5169565E-3],"categories":[],"categories_nodes":[],"categories_segments":[],"categories_sizes":[],"default_left":[0,0,0,0,0,0,0,0,0,0,0,0,0,0,0],"id":12,"left_children":[1,3,5,7,9,11,13,-1,-1,-1,-1,-1,-1,-1,-1],"loss_changes":[7.5068115E1,3.8619766E1,1.4955566E1,1.1805944E1,9.171349E0,7.7258034E0,8.89884E0,0E0,0E0,0E0,0E0,0E0,0E0,0E0,0E0],"parents":[2147483647,0,0,1,1,2,2,3,3,4,4,5,5,6,6],"right_children":[2,4,6,8,10,12,14,-1,-1,-1,-1,-1,-1,-1,-1],"split_conditions":[2.2E1,1.9E1,2.1E1,6.5E0,9.4E0,1.9E1,4.58E-1,-2.2826537E-4,-4.053951E-3,7.8031644E-3,-5.428821E-3,3.539738E-3,7.7201626E-3,3.8387217E-3,-2.5169565E-3],"split_indices":[27,80,81,25,60,35,59,0,0,0,0,0,0,0,0],"split_type":[0,0,0,0,0,0,0,0,0,0,0,0,0,0,0],"sum_hessian":[1.1918439E3,8.990812E2,2.9276273E2,5.8943854E2,3.0964267E2,2.0329271E2,8.947002E1,4.9399902E2,9.543948E1,4.489596E0,3.0515308E2,1.3590227E2,6.7390434E1,3.5981544E1,5.348847E1],"tree_param":{"num_deleted":"0","num_feature":"106","num_nodes":"15","size_leaf_vector":"1"}},{"base_weights":[9.269995E-2,2.3588607E-1,-3.4633404E-1,8.5352235E-2,5.212464E-1,-4.9565327E-1,-5.3241868E-3,2.2826626E-4,4.05395E-3,-7.8031644E-3,5.4288195E-3,-3.539738E-3,-7.7201626E-3,-3.8387226E-3,2.5169565E-3],"categories":[],"categories_nodes":[],"categories_segments":[],"categories_sizes":[],"default_left":[0,0,0,0,0,0,0,0,0,0,0,0,0,0,0],"id":13,"left_children":[1,3,5,7,9,11,13,-1,-1,-1,-1,-1,-1,-1,-1],"loss_changes":[7.5068115E1,3.8619736E1,1.4955559E1,1.1805933E1,9.171349E0,7.7258034E0,8.898841E0,0E0,0E0,0E0,0E0,0E0,0E0,0E0,0E0],"parents":[2147483647,0,0,1,1,2,2,3,3,4,4,5,5,6,6],"right_children":[2,4,6,8,10,12,14,-1,-1,-1,-1,-1,-1,-1,-1],"split_conditions":[2.2E1,1.9E1,2.1E1,6.5E0,9.4E0,1.9E1,4.58E-1,2.2826626E-4,4.05395E-3,-7.8031644E-3,5.4288195E-3,-3.539738E-3,-7.7201626E-3,-3.8387226E-3,2.5169565E-3],"split_indices":[27,80,81,25,60,35,59,0,0,0,0,0,0,0,0],"split_type":[0,0,0,0,0,0,0,0,0,0,0,0,0,0,0],"sum_hessian":[1.1918439E3,8.990812E2,2.9276273E2,5.894385E2,3.0964267E2,2.0329271E2,8.947001E1,4.93999E2,9.543949E1,4.489596E0,3.0515308E2,1.3590228E2,6.7390434E1,3.5981544E1,5.3488464E1],"tree_param":{"num_deleted":"0","num_feature":"106","num_nodes":"15","size_leaf_vector":"1"}},{"base_weights":[-9.178175E-2,-2.3356754E-1,3.4301165E-1,-1.1316185E-1,-5.845135E-1,4.9092686E-1,5.2862866E-3,-5.3204206E-4,-4.140421E-3,5.425157E-3,-6.249288E-3,-8.4704894E-4,5.555977E-3,-1.6123975E-3,5.8206473E-3],"categories":[],"categories_nodes":[],"categories_segments":[],"categories_sizes":[],"default_left":[0,0,0,0,0,0,0,0,0,0,0,0,0,0,0],"id":14,"left_children":[1,3,5,7,9,11,13,-1,-1,-1,-1,-1,-1,-1,-1],"loss_changes":[7.360186E1,3.796142E1,1.4668079E1,1.2088075E1,1.0799263E1,7.6494865E0,8.782317E0,0E0,0E0,0E0,0E0,0E0,0E0,0E0,0E0],"parents":[2147483647,0,0,1,1,2,2,3,3,4,4,5,5,6,6],"right_children":[2,4,6,8,10,12,14,-1,-1,-1,-1,-1,-1,-1,-1],"split_conditions":[2.2E1,2.2E1,2.1E1,6.5E0,4.28E-1,2.2E1,2.8E1,-5.3204206E-4,-4.140421E-3,5.425157E-3,-6.249288E-3,-8.4704894E-4,5.555977E-3,-1.6123975E-3,5.8206473E-3],"split_indices":[27,80,81,25,59,28,85,0,0,0,0,0,0,0,0],"split_type":[0,0,0,0,0,0,0,0,0,0,0,0,0,0,0],"sum_hessian":[1.1916149E3,8.989355E2,2.9267935E2,6.702891E2,2.2864636E2,2.0322032E2,8.945902E1,5.598937E2,1.10395485E2,7.4853406E0,2.2116101E2,2.0494059E1,1.8272627E2,6.9976135E1,1.948289E1],"tree_param":{"num_deleted":"0","num_feature":"106","num_nodes":"15","size_leaf_vector":"1"}},{"base_weights":[9.178176E-2,2.3356754E-1,-3.4301162E-1,1.13161854E-1,5.845135E-1,-4.9092686E-1,-5.286223E-3,5.3204206E-4,4.140421E-3,-5.425157E-3,6.249288E-3,8.4704894E-4,-5.555977E-3,1.6123982E-3,-5.820646E-3],"categories":[],"categories_nodes":[],"categories_segments":[],"categories_sizes":[],"default_left":[0,0,0,0,0,0,0,0,0,0,0,0,0,0,0],"id":15,"left_children":[1,3,5,7,9,11,13,-1,-1,-1,-1,-1,-1,-1,-1],"loss_changes":[7.360186E1,3.7961426E1,1.4668079E1,1.2088076E1,1.0799263E1,7.6494865E0,8.782317E0,0E0,0E0,0E0,0E0,0E0,0E0,0E0,0E0],"parents":[2147483647,0,0,1,1,2,2,3,3,4,4,5,5,6,6],"right_children":[2,4,6,8,10,12,14,-1,-1,-1,-1,-1,-1,-1,-1],"split_conditions":[2.2E1,2.2E1,2.1E1,6.5E0,4.28E-1,2.2E1,2.8E1,5.3204206E-4,4.140421E-3,-5.425157E-3,6.249288E-3,8.4704894E-4,-5.555977E-3,1.6123982E-3,-5.820646E-3],"split_indices":[27,80,81,25,59,28,85,0,0,0,0,0,0,0,0],"split_type":[0,0,0,0,0,0,0,0,0,0,0,0,0,0,0],"sum_hessian":[1.1916149E3,8.989355E2,2.9267935E2,6.702891E2,2.2864636E2,2.0322032E2,8.945902E1,5.598937E2,1.1039549E2,7.4853406E0,2.2116101E2,2.0494059E1,1.8272627E2,6.9976135E1,1.948289E1],"tree_param":{"num_deleted":"0","num_feature":"106","num_nodes":"15","size_leaf_vector":"1"}},{"base_weights":[-9.087953E-2,-2.3127675E-1,3.3971822E-1,-8.3398506E-2,-5.1180565E-1,4.8623666E-1,5.280689E-3,-3.1604674E-3,1.9479536E-5,7.728792E-3,-5.331664E-3,1.6656402E-3,6.042104E-3,3.7792306E-3,-2.4767593E-3],"categories":[],"categories_nodes":[],"categories_segments":[],"categories_sizes":[],"default_left":[0,0,0,0,0,0,0,0,0,0,0,0,0,0,0],"id":16,"left_children":[1,3,5,7,9,11,13,-1,-1,-1,-1,-1,-1,-1,-1],"loss_changes":[7.2163246E1,3.7284153E1,1.4383617E1,1.1723253E1,8.9298935E0,7.598034E0,8.619601E0,0E0,0E0,0E0,0E0,0E0,0E0,0E0,0E0],"parents":[2147483647,0,0,1,1,2,2,3,3,4,4,5,5,6,6],"right_children":[2,4,6,8,10,12,14,-1,-1,-1,-1,-1,-1,-1,-1],"split_conditions":[2.2E1,1.9E1,2.1E1,3.63E-1,9.4E0,8E0,4.58E-1,-3.1604674E-3,1.9479536E-5,7.728792E-3,-5.331664E-3,1.6656402E-3,6.042104E-3,3.7792306E-3,-2.4767593E-3],"split_indices":[27,80,81,62,60,30,59,0,0,0,0,0,0,0,0],"split_type":[0,0,0,0,0,0,0,0,0,0,0,0,0,0,0],"sum_hessian":[1.1913745E3,8.987864E2,2.925881E2,5.8939136E2,3.09395E2,2.0313844E2,8.944967E1,1.5746101E2,4.3193036E2,4.4848366E0,3.0491016E2,5.5408985E1,1.4772946E2,3.59686E1,5.348107E1],"tree_param":{"num_deleted":"0","num_feature":"106","num_nodes":"15","size_leaf_vector":"1"}},{"base_weights":[9.087953E-2,2.3127677E-1,-3.3971828E-1,8.3398506E-2,5.118057E-1,-4.8623675E-1,-5.2806824E-3,3.1604674E-3,-1.9479536E-5,-7.728791E-3,5.3316643E-3,-1.6656407E-3,-6.0421047E-3,-3.7792306E-3,2.4767593E-3],"categories":[],"categories_nodes":[],"categories_segments":[],"categories_sizes":[],"default_left":[0,0,0,0,0,0,0,0,0,0,0,0,0,0,0],"id":17,"left_children":[1,3,5,7,9,11,13,-1,-1,-1,-1,-1,-1,-1,-1],"loss_changes":[7.216326E1,3.728417E1,1.4383625E1,1.1723253E1,8.929886E0,7.5980263E0,8.619601E0,0E0,0E0,0E0,0E0,0E0,0E0,0E0,0E0],"parents":[2147483647,0,0,1,1,2,2,3,3,4,4,5,5,6,6],"right_children":[2,4,6,8,10,12,14,-1,-1,-1,-1,-1,-1,-1,-1],"split_conditions":[2.2E1,1.9E1,2.1E1,3.63E-1,9.4E0,8E0,4.58E-1,3.1604674E-3,-1.9479536E-5,-7.728791E-3,5.3316643E-3,-1.6656407E-3,-6.0421047E-3,-3.7792306E-3,2.4767593E-3],"split_indices":[27,80,81,62,60,30,59,0,0,0,0,0,0,0,0],"split_type":[0,0,0,0,0,0,0,0,0,0,0,0,0,0,0],"sum_hessian":[1.1913745E3,8.987864E2,2.925881E2,5.8939136E2,3.09395E2,2.0313844E2,8.944967E1,1.5746101E2,4.3193036E2,4.4848366E0,3.0491016E2,5.540898E1,1.4772946E2,3.59686E1,5.348107E1],"tree_param":{"num_deleted":"0","num_feature":"106","num_nodes":"15","size_leaf_vector":"1"}},{"base_weights":[-8.998401E-2,-2.2900748E-1,3.364673E-1,-1.10728376E-1,-5.740651E-1,4.8161736E-1,5.2431524E-3,-2.0897104E-3,6.8459637E-4,5.3957235E-3,-6.1404114E-3,3.4124276E-3,7.5579807E-3,-1.5868461E-3,5.732966E-3],"categories":[],"categories_nodes":[],"categories_segments":[],"categories_sizes":[],"default_left":[0,0,0,0,0,0,0,0,0,0,0,0,0,0,0],"id":18,"left_children":[1,3,5,7,9,11,13,-1,-1,-1,-1,-1,-1,-1,-1],"loss_changes":[7.075328E1,3.665275E1,1.4107559E1,1.1830178E1,1.0544525E1,7.595642E0,8.512357E0,0E0,0E0,0E0,0E0,0E0,0E0,0E0,0E0],"parents":[2147483647,0,0,1,1,2,2,3,3,4,4,5,5,6,6],"right_children":[2,4,6,8,10,12,14,-1,-1,-1,-1,-1,-1,-1,-1],"split_conditions":[2.2E1,2.2E1,2.1E1,1.7E1,4.28E-1,1.9E1,2.8E1,-2.0897104E-3,6.8459637E-4,5.3957235E-3,-6.1404114E-3,3.4124276E-3,7.5579807E-3,-1.5868461E-3,5.732966E-3],"split_indices":[27,80,81,33,59,35,85,0,0,0,0,0,0,0,0],"split_type":[0,0,0,0,0,0,0,0,0,0,0,0,0,0,0],"sum_hessian":[1.1911085E3,8.986205E2,2.92488E2,6.702072E2,2.2841324E2,2.0305194E2,8.943608E1,4.3276868E2,2.3743854E2,7.4821095E0,2.2093114E2,1.3578008E2,6.727186E1,6.996606E1,1.9470018E1],"tree_param":{"num_deleted":"0","num_feature":"106","num_nodes":"15","size_leaf_vector":"1"}},{"base_weights":[8.998399E-2,2.2900747E-1,-3.3646733E-1,1.1072835E-1,5.740651E-1,-4.8161736E-1,-5.2431463E-3,2.0897104E-3,-6.845967E-4,-5.3957235E-3,6.1404114E-3,-3.4124276E-3,-7.5579807E-3,1.5868462E-3,-5.732966E-3],"categories":[],"categories_nodes":[],"categories_segments":[],"categories_sizes":[],"default_left":[0,0,0,0,0,0,0,0,0,0,0,0,0,0,0],"id":19,"left_children":[1,3,5,7,9,11,13,-1,-1,-1,-1,-1,-1,-1,-1],"loss_changes":[7.075329E1,3.665274E1,1.4107559E1,1.1830179E1,1.0544525E1,7.595646E0,8.512357E0,0E0,0E0,0E0,0E0,0E0,0E0,0E0,0E0],"parents":[2147483647,0,0,1,1,2,2,3,3,4,4,5,5,6,6],"right_children":[2,4,6,8,10,12,14,-1,-1,-1,-1,-1,-1,-1,-1],"split_conditions":[2.2E1,2.2E1,2.1E1,1.7E1,4.28E-1,1.9E1,2.8E1,2.0897104E-3,-6.845967E-4,-5.3957235E-3,6.1404114E-3,-3.4124276E-3,-7.5579807E-3,1.5868462E-3,-5.732966E-3],"split_indices":[27,80,81,33,59,35,85,0,0,0,0,0,0,0,0],"split_type":[0,0,0,0,0,0,0,0,0,0,0,0,0,0,0],"sum_hessian":[1.1911085E3,8.986204E2,2.92488E2,6.702072E2,2.2841324E2,2.0305194E2,8.943608E1,4.3276868E2,2.3743854E2,7.4821095E0,2.2093114E2,1.3578008E2,6.727186E1,6.996606E1,1.9470018E1],"tree_param":{"num_deleted":"0","num_feature":"106","num_nodes":"15","size_leaf_vector":"1"}},{"base_weights":[-8.90946E-2,-2.2676347E-1,3.3328277E-1,-8.148608E-2,-5.026221E-1,4.7709113E-1,5.2374885E-3,-3.1182633E-3,3.0041869E-5,7.65821E-3,-5.237198E-3,-9.1571506E-4,5.410934E-3,-1.571258E-3,5.6810556E-3],"categories":[],"categories_nodes":[],"categories_segments":[],"categories_sizes":[],"default_left":[0,0,0,0,0,0,0,0,0,0,0,0,0,0,0],"id":20,"left_children":[1,3,5,7,9,11,13,-1,-1,-1,-1,-1,-1,-1,-1],"loss_changes":[6.937807E1,3.600539E1,1.3837696E1,1.1490309E1,8.699333E0,7.4725037E0,8.353048E0,0E0,0E0,0E0,0E0,0E0,0E0,0E0,0E0],"parents":[2147483647,0,0,1,1,2,2,3,3,4,4,5,5,6,6],"right_children":[2,4,6,8,10,12,14,-1,-1,-1,-1,-1,-1,-1,-1],"split_conditions":[2.2E1,1.9E1,2.1E1,3.63E-1,9.4E0,2.2E1,2.8E1,-3.1182633E-3,3.0041869E-5,7.65821E-3,-5.237198E-3,-9.1571506E-4,5.410934E-3,-1.571258E-3,5.6810556E-3],"split_indices":[27,80,81,62,60,28,85,0,0,0,0,0,0,0,0],"split_type":[0,0,0,0,0,0,0,0,0,0,0,0,0,0,0],"sum_hessian":[1.190825E3,8.984493E2,2.923757E2,5.8936383E2,3.0908545E2,2.0295154E2,8.9424164E1,1.5744398E2,4.3191986E2,4.479315E0,3.0460614E2,2.0487608E1,1.8246393E2,6.996354E1,1.946063E1],"tree_param":{"num_deleted":"0","num_feature":"106","num_nodes":"15","size_leaf_vector":"1"}},{"base_weights":[8.909458E-2,2.2676346E-1,-3.332828E-1,8.1486076E-2,5.026221E-1,-4.770912E-1,-5.2375365E-3,3.118263E-3,-3.0041876E-5,-7.65821E-3,5.237198E-3,9.157144E-4,-5.410935E-3,1.5712572E-3,-5.6810556E-3],"categories":[],"categories_nodes":[],"categories_segments":[],"categories_sizes":[],"default_left":[0,0,0,0,0,0,0,0,0,0,0,0,0,0,0],"id":21,"left_children":[1,3,5,7,9,11,13,-1,-1,-1,-1,-1,-1,-1,-1],"loss_changes":[6.937808E1,3.6005398E1,1.3837688E1,1.1490307E1,8.699326E0,7.4725037E0,8.353047E0,0E0,0E0,0E0,0E0,0E0,0E0,0E0,0E0],"parents":[2147483647,0,0,1,1,2,2,3,3,4,4,5,5,6,6],"right_children":[2,4,6,8,10,12,14,-1,-1,-1,-1,-1,-1,-1,-1],"split_conditions":[2.2E1,1.9E1,2.1E1,3.63E-1,9.4E0,2.2E1,2.8E1,3.118263E-3,-3.0041876E-5,-7.65821E-3,5.237198E-3,9.157144E-4,-5.410935E-3,1.5712572E-3,-5.6810556E-3],"split_indices":[27,80,81,62,60,28,85,0,0,0,0,0,0,0,0],"split_type":[0,0,0,0,0,0,0,0,0,0,0,0,0,0,0],"sum_hessian":[1.190825E3,8.984493E2,2.923757E2,5.8936383E2,3.0908542E2,2.0295154E2,8.942417E1,1.5744398E2,4.3191986E2,4.479315E0,3.046061E2,2.0487608E1,1.8246393E2,6.996354E1,1.946063E1],"tree_param":{"num_deleted":"0","num_feature":"106","num_nodes":"15","size_leaf_vector":"1"}},{"base_weights":[-8.822097E-2,-2.2454686E-1,3.3011857E-1,-1.0834203E-1,-5.639373E-1,4.725972E-1,5.2316645E-3,-4.927E-4,-4.0496616E-3,5.3665284E-3,-6.034917E-3,3.3349383E-3,7.44597E-3,3.6990568E-3,-2.422031E-3],"categories":[],"categories_nodes":[],"categories_segments":[],"categories_sizes":[],"default_left":[0,0,0,0,0,0,0,0,0,0,0,0,0,0,0],"id":22,"left_children":[1,3,5,7,9,11,13,-1,-1,-1,-1,-1,-1,-1,-1],"loss_changes":[6.8026146E1,3.540425E1,1.3572044E1,1.17396E1,1.0298462E1,7.4642715E0,8.247629E0,0E0,0E0,0E0,0E0,0E0,0E0,0E0,0E0],"parents":[2147483647,0,0,1,1,2,2,3,3,4,4,5,5,6,6],"right_children":[2,4,6,8,10,12,14,-1,-1,-1,-1,-1,-1,-1,-1],"split_conditions":[2.2E1,2.2E1,2.1E1,6.5E0,4.28E-1,1.9E1,4.58E-1,-4.927E-4,-4.0496616E-3,5.3665284E-3,-6.034917E-3,3.3349383E-3,7.44597E-3,3.6990568E-3,-2.422031E-3],"split_indices":[27,80,81,25,59,35,59,0,0,0,0,0,0,0,0],"split_type":[0,0,0,0,0,0,0,0,0,0,0,0,0,0,0],"sum_hessian":[1.1905028E3,8.9824994E2,2.922529E2,6.7012366E2,2.2812628E2,2.0284213E2,8.941077E1,5.598057E2,1.1031795E2,7.4782596E0,2.2064803E2,1.3568008E2,6.716205E1,3.5942734E1,5.3468037E1],"tree_param":{"num_deleted":"0","num_feature":"106","num_nodes":"15","size_leaf_vector":"1"}},{"base_weights":[8.822097E-2,2.2454686E-1,-3.3011854E-1,1.0834207E-1,5.639372E-1,-4.725972E-1,-5.231674E-3,4.927005E-4,4.049661E-3,-5.3665284E-3,6.034916E-3,-3.3349376E-3,-7.4459706E-3,-3.6990573E-3,2.4220312E-3],"categories":[],"categories_nodes":[],"categories_segments":[],"categories_sizes":[],"default_left":[0,0,0,0,0,0,0,0,0,0,0,0,0,0,0],"id":23,"left_children":[1,3,5,7,9,11,13,-1,-1,-1,-1,-1,-1,-1,-1],"loss_changes":[6.8026146E1,3.540423E1,1.3572044E1,1.1739599E1,1.0298447E1,7.4642754E0,8.247633E0,0E0,0E0,0E0,0E0,0E0,0E0,0E0,0E0],"parents":[2147483647,0,0,1,1,2,2,3,3,4,4,5,5,6,6],"right_children":[2,4,6,8,10,12,14,-1,-1,-1,-1,-1,-1,-1,-1],"split_conditions":[2.2E1,2.2E1,2.1E1,6.5E0,4.28E-1,1.9E1,4.58E-1,4.927005E-4,4.049661E-3,-5.3665284E-3,6.034916E-3,-3.3349376E-3,-7.4459706E-3,-3.6990573E-3,2.4220312E-3],"split_indices":[27,80,81,25,59,35,59,0,0,0,0,0,0,0,0],"split_type":[0,0,0,0,0,0,0,0,0,0,0,0,0,0,0],"sum_hessian":[1.1905028E3,8.9824994E2,2.922529E2,6.7012366E2,2.2812628E2,2.0284213E2,8.9410774E1,5.598057E2,1.1031795E2,7.4782596E0,2.2064803E2,1.3568008E2,6.716205E1,3.5942734E1,5.3468037E1],"tree_param":{"num_deleted":"0","num_feature":"106","num_nodes":"15","size_leaf_vector":"1"}},{"base_weights":[-8.735892E-2,-2.2236118E-1,3.2701045E-1,-7.961654E-2,-4.9371204E-1,4.6819732E-1,5.19459E-3,1.4060914E-5,-3.1549488E-3,7.587461E-3,-5.1455013E-3,1.5185219E-3,5.8510653E-3,-1.5463826E-3,5.5968314E-3],"categories":[],"categories_nodes":[],"categories_segments":[],"categories_sizes":[],"default_left":[0,0,0,0,0,0,0,0,0,0,0,0,0,0,0],"id":24,"left_children":[1,3,5,7,9,11,13,-1,-1,-1,-1,-1,-1,-1,-1],"loss_changes":[6.670671E1,3.478378E1,1.3315714E1,1.12822695E1,8.473694E0,7.44561E0,8.097741E0,0E0,0E0,0E0,0E0,0E0,0E0,0E0,0E0],"parents":[2147483647,0,0,1,1,2,2,3,3,4,4,5,5,6,6],"right_children":[2,4,6,8,10,12,14,-1,-1,-1,-1,-1,-1,-1,-1],"split_conditions":[2.2E1,1.9E1,2.1E1,1.7E1,9.4E0,8E0,2.8E1,1.4060914E-5,-3.1549488E-3,7.587461E-3,-5.1455013E-3,1.5185219E-3,5.8510653E-3,-1.5463826E-3,5.5968314E-3],"split_indices":[27,80,81,88,60,30,85,0,0,0,0,0,0,0,0],"split_type":[0,0,0,0,0,0,0,0,0,0,0,0,0,0,0],"sum_hessian":[1.190152E3,8.9803424E2,2.9211774E2,5.893166E2,3.0871768E2,2.0272395E2,8.9393776E1,4.3938486E2,1.4993172E2,4.472791E0,3.042449E2,5.5323296E1,1.4740065E2,6.9951256E1,1.9442524E1],"tree_param":{"num_deleted":"0","num_feature":"106","num_nodes":"15","size_leaf_vector":"1"}},{"base_weights":[8.7358944E-2,2.223612E-1,-3.2701045E-1,7.961659E-2,4.9371204E-1,-4.681973E-1,-5.194616E-3,-1.4060432E-5,3.1549495E-3,-7.587461E-3,5.1455013E-3,-1.5185215E-3,-5.851065E-3,1.5463821E-3,-5.5968314E-3],"categories":[],"categories_nodes":[],"categories_segments":[],"categories_sizes":[],"default_left":[0,0,0,0,0,0,0,0,0,0,0,0,0,0,0],"id":25,"left_children":[1,3,5,7,9,11,13,-1,-1,-1,-1,-1,-1,-1,-1],"loss_changes":[6.670672E1,3.4783764E1,1.331571E1,1.1282271E1,8.4737015E0,7.44561E0,8.09774E0,0E0,0E0,0E0,0E0,0E0,0E0,0E0,0E0],"parents":[2147483647,0,0,1,1,2,2,3,3,4,4,5,5,6,6],"right_children":[2,4,6,8,10,12,14,-1,-1,-1,-1,-1,-1,-1,-1],"split_conditions":[2.2E1,1.9E1,2.1E1,1.7E1,9.4E0,8E0,2.8E1,-1.4060432E-5,3.1549495E-3,-7.587461E-3,5.1455013E-3,-1.5185215E-3,-5.851065E-3,1.5463821E-3,-5.5968314E-3],"split_indices":[27,80,81,88,60,30,85,0,0,0,0,0,0,0,0],"split_type":[0,0,0,0,0,0,0,0,0,0,0,0,0,0,0],"sum_hessian":[1.190152E3,8.9803424E2,2.9211774E2,5.893166E2,3.0871768E2,2.0272395E2,8.939378E1,4.3938486E2,1.499317E2,4.472791E0,3.0424487E2,5.5323296E1,1.4740065E2,6.9951256E1,1.9442524E1],"tree_param":{"num_deleted":"0","num_feature":"106","num_nodes":"15","size_leaf_vector":"1"}},{"base_weights":[-8.6503044E-2,-2.2019504E-1,3.2393152E-1,-1.06014974E-1,-5.5411255E-1,4.6382827E-1,5.188704E-3,-2.0295838E-3,7.075125E-4,5.3375796E-3,-5.932617E-3,3.2585163E-3,7.339646E-3,3.6426533E-3,-2.3835704E-3],"categories":[],"categories_nodes":[],"categories_segments":[],"categories_sizes":[],"default_left":[0,0,0,0,0,0,0,0,0,0,0,0,0,0,0],"id":26,"left_children":[1,3,5,7,9,11,13,-1,-1,-1,-1,-1,-1,-1,-1],"loss_changes":[6.541194E1,3.4209743E1,1.3061941E1,1.1513113E1,1.00606E1,7.3496323E0,7.9905267E0,0E0,0E0,0E0,0E0,0E0,0E0,0E0,0E0],"parents":[2147483647,0,0,1,1,2,2,3,3,4,4,5,5,6,6],"right_children":[2,4,6,8,10,12,14,-1,-1,-1,-1,-1,-1,-1,-1],"split_conditions":[2.2E1,2.2E1,2.1E1,1.7E1,4.28E-1,1.9E1,4.58E-1,-2.0295838E-3,7.075125E-4,5.3375796E-3,-5.932617E-3,3.2585163E-3,7.339646E-3,3.6426533E-3,-2.3835704E-3],"split_indices":[27,80,81,33,59,35,59,0,0,0,0,0,0,0,0],"split_type":[0,0,0,0,0,0,0,0,0,0,0,0,0,0,0],"sum_hessian":[1.1897864E3,8.9780524E2,2.919811E2,6.700166E2,2.2778864E2,2.0260309E2,8.937801E1,4.3261215E2,2.3740445E2,7.47381E0,2.2031482E2,1.3556651E2,6.703658E1,3.5921196E1,5.345682E1],"tree_param":{"num_deleted":"0","num_feature":"106","num_nodes":"15","size_leaf_vector":"1"}},{"base_weights":[8.6503044E-2,2.2019504E-1,-3.2393152E-1,1.06014974E-1,5.5411255E-1,-4.6382824E-1,-5.188737E-3,2.029584E-3,-7.0751295E-4,-5.337579E-3,5.932617E-3,-3.258516E-3,-7.339646E-3,-3.642653E-3,2.3835695E-3],"categories":[],"categories_nodes":[],"categories_segments":[],"categories_sizes":[],"default_left":[0,0,0,0,0,0,0,0,0,0,0,0,0,0,0],"id":27,"left_children":[1,3,5,7,9,11,13,-1,-1,-1,-1,-1,-1,-1,-1],"loss_changes":[6.541194E1,3.4209743E1,1.3061937E1,1.1513121E1,1.00606E1,7.3496284E0,7.990524E0,0E0,0E0,0E0,0E0,0E0,0E0,0E0,0E0],"parents":[2147483647,0,0,1,1,2,2,3,3,4,4,5,5,6,6],"right_children":[2,4,6,8,10,12,14,-1,-1,-1,-1,-1,-1,-1,-1],"split_conditions":[2.2E1,2.2E1,2.1E1,1.7E1,4.28E-1,1.9E1,4.58E-1,2.029584E-3,-7.0751295E-4,-5.337579E-3,5.932617E-3,-3.258516E-3,-7.339646E-3,-3.642653E-3,2.3835695E-3],"split_indices":[27,80,81,33,59,35,59,0,0,0,0,0,0,0,0],"split_type":[0,0,0,0,0,0,0,0,0,0,0,0,0,0,0],"sum_hessian":[1.1897864E3,8.9780524E2,2.919811E2,6.700166E2,2.2778864E2,2.0260309E2,8.937802E1,4.3261215E2,2.3740443E2,7.47381E0,2.2031482E2,1.3556651E2,6.703658E1,3.5921196E1,5.345682E1],"tree_param":{"num_deleted":"0","num_feature":"106","num_nodes":"15","size_leaf_vector":"1"}},{"base_weights":[-8.565775E-2,-2.1805263E-1,3.209027E-1,-7.77902E-2,-4.8503247E-1,4.5954806E-1,5.1519866E-3,2.4320218E-5,-3.1137594E-3,7.5203264E-3,-5.056218E-3,1.4600739E-3,5.755327E-3,-1.5219436E-3,5.514708E-3],"categories":[],"categories_nodes":[],"categories_segments":[],"categories_sizes":[],"default_left":[0,0,0,0,0,0,0,0,0,0,0,0,0,0,0],"id":28,"left_children":[1,3,5,7,9,11,13,-1,-1,-1,-1,-1,-1,-1,-1],"loss_changes":[6.414497E1,3.3611286E1,1.281683E1,1.106181E1,8.25811E0,7.315277E0,7.8512826E0,0E0,0E0,0E0,0E0,0E0,0E0,0E0,0E0],"parents":[2147483647,0,0,1,1,2,2,3,3,4,4,5,5,6,6],"right_children":[2,4,6,8,10,12,14,-1,-1,-1,-1,-1,-1,-1,-1],"split_conditions":[2.2E1,1.9E1,2.1E1,1.7E1,9.4E0,8E0,2.8E1,2.4320218E-5,-3.1137594E-3,7.5203264E-3,-5.056218E-3,1.4600739E-3,5.755327E-3,-1.5219436E-3,5.514708E-3],"split_indices":[27,80,81,88,60,30,85,0,0,0,0,0,0,0,0],"split_type":[0,0,0,0,0,0,0,0,0,0,0,0,0,0,0],"sum_hessian":[1.1893986E3,8.975715E2,2.9182706E2,5.8927637E2,3.0829507E2,2.0246834E2,8.9358734E1,4.3936972E2,1.4990666E2,4.465578E0,3.0382947E2,5.5282455E1,1.4718588E2,6.993736E1,1.9421377E1],"tree_param":{"num_deleted":"0","num_feature":"106","num_nodes":"15","size_leaf_vector":"1"}},{"base_weights":[8.565776E-2,2.1805264E-1,-3.2090276E-1,7.779022E-2,4.8503247E-1,-4.5954812E-1,-5.1520127E-3,-2.4319754E-5,3.113759E-3,-7.5203264E-3,5.056218E-3,-1.4600743E-3,-5.7553276E-3,1.5219435E-3,-5.514708E-3],"categories":[],"categories_nodes":[],"categories_segments":[],"categories_sizes":[],"default_left":[0,0,0,0,0,0,0,0,0,0,0,0,0,0,0],"id":29,"left_children":[1,3,5,7,9,11,13,-1,-1,-1,-1,-1,-1,-1,-1],"loss_changes":[6.4145E1,3.3611282E1,1.28168335E1,1.1061804E1,8.258118E0,7.315281E0,7.851283E0,0E0,0E0,0E0,0E0,0E0,0E0,0E0,0E0],"parents":[2147483647,0,0,1,1,2,2,3,3,4,4,5,5,6,6],"right_children":[2,4,6,8,10,12,14,-1,-1,-1,-1,-1,-1,-1,-1],"split_conditions":[2.2E1,1.9E1,2.1E1,1.7E1,9.4E0,8E0,2.8E1,-2.4319754E-5,3.113759E-3,-7.5203264E-3,5.056218E-3,-1.4600743E-3,-5.7553276E-3,1.5219435E-3,-5.514708E-3],"split_indices":[27,80,81,88,60,30,85,0,0,0,0,0,0,0,0],"split_type":[0,0,0,0,0,0,0,0,0,0,0,0,0,0,0],"sum_hessian":[1.1893986E3,8.975715E2,2.9182706E2,5.8927637E2,3.0829507E2,2.0246832E2,8.9358734E1,4.3936972E2,1.4990666E2,4.465578E0,3.0382947E2,5.5282455E1,1.4718587E2,6.9937355E1,1.9421377E1],"tree_param":{"num_deleted":"0","num_feature":"106","num_nodes":"15","size_leaf_vector":"1"}},{"base_weights":[-8.4821925E-2,-2.1593562E-1,3.1790167E-1,-1.0373239E-1,-5.4457486E-1,4.552965E-1,5.146061E-3,-4.5463664E-4,-3.9653503E-3,5.308871E-3,-5.8333413E-3,-1.0545136E-3,5.18635E-3,3.5874092E-3,-2.3457827E-3],"categories":[],"categories_nodes":[],"categories_segments":[],"categories_sizes":[],"default_left":[0,0,0,0,0,0,0,0,0,0,0,0,0,0,0],"id":30,"left_children":[1,3,5,7,9,11,13,-1,-1,-1,-1,-1,-1,-1,-1],"loss_changes":[6.2902916E1,3.306824E1,1.2574068E1,1.1428519E1,9.83049E0,7.2763977E0,7.7419114E0,0E0,0E0,0E0,0E0,0E0,0E0,0E0,0E0],"parents":[2147483647,0,0,1,1,2,2,3,3,4,4,5,5,6,6],"right_children":[2,4,6,8,10,12,14,-1,-1,-1,-1,-1,-1,-1,-1],"split_conditions":[2.2E1,2.2E1,2.1E1,6.5E0,4.28E-1,2.2E1,4.58E-1,-4.5463664E-4,-3.9653503E-3,5.308871E-3,-5.8333413E-3,-1.0545136E-3,5.18635E-3,3.5874092E-3,-2.3457827E-3],"split_indices":[27,80,81,25,59,28,59,0,0,0,0,0,0,0,0],"split_type":[0,0,0,0,0,0,0,0,0,0,0,0,0,0,0],"sum_hessian":[1.1889849E3,8.973128E2,2.9167203E2,6.6990955E2,2.2740329E2,2.023313E2,8.934073E1,5.596855E2,1.10224045E2,7.4687796E0,2.1993451E2,2.0467134E1,1.8186417E2,3.589658E1,5.344415E1],"tree_param":{"num_deleted":"0","num_feature":"106","num_nodes":"15","size_leaf_vector":"1"}},{"base_weights":[8.482191E-2,2.159356E-1,-3.1790167E-1,1.03732355E-1,5.4457486E-1,-4.552965E-1,-5.1460657E-3,4.546363E-4,3.96535E-3,-5.308871E-3,5.8333417E-3,1.0545135E-3,-5.18635E-3,-3.5874092E-3,2.3457827E-3],"categories":[],"categories_nodes":[],"categories_segments":[],"categories_sizes":[],"default_left":[0,0,0,0,0,0,0,0,0,0,0,0,0,0,0],"id":31,"left_children":[1,3,5,7,9,11,13,-1,-1,-1,-1,-1,-1,-1,-1],"loss_changes":[6.290291E1,3.306825E1,1.2574064E1,1.1428522E1,9.83049E0,7.276409E0,7.741911E0,0E0,0E0,0E0,0E0,0E0,0E0,0E0,0E0],"parents":[2147483647,0,0,1,1,2,2,3,3,4,4,5,5,6,6],"right_children":[2,4,6,8,10,12,14,-1,-1,-1,-1,-1,-1,-1,-1],"split_conditions":[2.2E1,2.2E1,2.1E1,6.5E0,4.28E-1,2.2E1,4.58E-1,4.546363E-4,3.96535E-3,-5.308871E-3,5.8333417E-3,1.0545135E-3,-5.18635E-3,-3.5874092E-3,2.3457827E-3],"split_indices":[27,80,81,25,59,28,59,0,0,0,0,0,0,0,0],"split_type":[0,0,0,0,0,0,0,0,0,0,0,0,0,0,0],"sum_hessian":[1.1889849E3,8.9731287E2,2.9167203E2,6.6990955E2,2.274033E2,2.0233131E2,8.934073E1,5.596855E2,1.10224045E2,7.4687796E0,2.1993452E2,2.0467134E1,1.8186417E2,3.5896584E1,5.344415E1],"tree_param":{"num_deleted":"0","num_feature":"106","num_nodes":"15","size_leaf_vector":"1"}},{"base_weights":[-8.400504E-2,-2.1384794E-1,3.1492594E-1,-7.6004684E-2,-4.7660092E-1,4.510966E-1,5.1097195E-3,-2.9992396E-3,6.087132E-5,1.2647846E-3,-5.196759E-3,3.142042E-3,7.196293E-3,-1.4979314E-3,5.4345937E-3],"categories":[],"categories_nodes":[],"categories_segments":[],"categories_sizes":[],"default_left":[0,0,0,0,0,0,0,0,0,0,0,0,0,0,0],"id":32,"left_children":[1,3,5,7,9,11,13,-1,-1,-1,-1,-1,-1,-1,-1],"loss_changes":[6.1683548E1,3.2489574E1,1.2337709E1,1.0851164E1,8.088165E0,7.2428856E0,7.6133027E0,0E0,0E0,0E0,0E0,0E0,0E0,0E0,0E0],"parents":[2147483647,0,0,1,1,2,2,3,3,4,4,5,5,6,6],"right_children":[2,4,6,8,10,12,14,-1,-1,-1,-1,-1,-1,-1,-1],"split_conditions":[2.2E1,1.9E1,2.1E1,3.63E-1,7E0,1.9E1,2.8E1,-2.9992396E-3,6.087132E-5,1.2647846E-3,-5.196759E-3,3.142042E-3,7.196293E-3,-1.4979314E-3,5.4345937E-3],"split_indices":[27,80,81,62,101,35,85,0,0,0,0,0,0,0,0],"split_type":[0,0,0,0,0,0,0,0,0,0,0,0,0,0,0],"sum_hessian":[1.1885397E3,8.9703827E2,2.9150146E2,5.892173E2,3.0782098E2,2.0218219E2,8.931927E1,1.5735405E2,4.3186322E2,2.0391384E1,2.874296E2,1.3535243E2,6.682976E1,6.992193E1,1.9397339E1],"tree_param":{"num_deleted":"0","num_feature":"106","num_nodes":"15","size_leaf_vector":"1"}},{"base_weights":[8.4005006E-2,2.1384789E-1,-3.1492594E-1,7.600462E-2,4.766009E-1,-4.5109656E-1,-5.1097516E-3,2.9992396E-3,-6.0872197E-5,-1.264785E-3,5.196759E-3,-3.1420419E-3,-7.196293E-3,1.4979312E-3,-5.4345937E-3],"categories":[],"categories_nodes":[],"categories_segments":[],"categories_sizes":[],"default_left":[0,0,0,0,0,0,0,0,0,0,0,0,0,0,0],"id":33,"left_children":[1,3,5,7,9,11,13,-1,-1,-1,-1,-1,-1,-1,-1],"loss_changes":[6.1683533E1,3.2489574E1,1.2337704E1,1.08511715E1,8.088173E0,7.2428894E0,7.6133027E0,0E0,0E0,0E0,0E0,0E0,0E0,0E0,0E0],"parents":[2147483647,0,0,1,1,2,2,3,3,4,4,5,5,6,6],"right_children":[2,4,6,8,10,12,14,-1,-1,-1,-1,-1,-1,-1,-1],"split_conditions":[2.2E1,1.9E1,2.1E1,3.63E-1,7E0,1.9E1,2.8E1,2.9992396E-3,-6.0872197E-5,-1.264785E-3,5.196759E-3,-3.1420419E-3,-7.196293E-3,1.4979312E-3,-5.4345937E-3],"split_indices":[27,80,81,62,101,35,85,0,0,0,0,0,0,0,0],"split_type":[0,0,0,0,0,0,0,0,0,0,0,0,0,0,0],"sum_hessian":[1.1885397E3,8.9703827E2,2.9150146E2,5.892173E2,3.0782098E2,2.0218219E2,8.9319275E1,1.5735405E2,4.3186325E2,2.0391384E1,2.874296E2,1.3535243E2,6.682976E1,6.9921936E1,1.939734E1],"tree_param":{"num_deleted":"0","num_feature":"106","num_nodes":"15","size_leaf_vector":"1"}},{"base_weights":[-8.319043E-2,-2.1178226E-1,3.120163E-1,-1.01565495E-1,-5.351519E-1,4.469845E-1,5.1038144E-3,-1.97253E-3,7.2850793E-4,5.296028E-3,-5.7362127E-3,5.724533E-3,1.6003313E-3,3.5332846E-3,-2.3086523E-3],"categories":[],"categories_nodes":[],"categories_segments":[],"categories_sizes":[],"default_left":[0,0,0,0,0,0,0,0,0,0,0,0,0,0,0],"id":34,"left_children":[1,3,5,7,9,11,13,-1,-1,-1,-1,-1,-1,-1,-1],"loss_changes":[6.0496025E1,3.194268E1,1.2106787E1,1.1209486E1,9.641777E0,7.217987E0,7.501473E0,0E0,0E0,0E0,0E0,0E0,0E0,0E0,0E0],"parents":[2147483647,0,0,1,1,2,2,3,3,4,4,5,5,6,6],"right_children":[2,4,6,8,10,12,14,-1,-1,-1,-1,-1,-1,-1,-1],"split_conditions":[2.2E1,2.2E1,2.1E1,1.7E1,4.28E-1,1.9E1,4.58E-1,-1.97253E-3,7.2850793E-4,5.296028E-3,-5.7362127E-3,5.724533E-3,1.6003313E-3,3.5332846E-3,-2.3086523E-3],"split_indices":[27,80,81,33,59,23,59,0,0,0,0,0,0,0,0],"split_type":[0,0,0,0,0,0,0,0,0,0,0,0,0,0,0],"sum_hessian":[1.1880894E3,8.9676526E2,2.9132413E2,6.697894E2,2.2697583E2,2.02025E2,8.929914E1,4.324239E2,2.3736551E2,7.4694576E0,2.1950638E2,1.3987154E2,6.215345E1,3.586905E1,5.3430088E1],"tree_param":{"num_deleted":"0","num_feature":"106","num_nodes":"15","size_leaf_vector":"1"}},{"base_weights":[8.319042E-2,2.1178223E-1,-3.1201625E-1,1.0156548E-1,5.351518E-1,-4.4698444E-1,-5.1037334E-3,1.97253E-3,-7.285083E-4,-5.2960278E-3,5.7362113E-3,-5.7245325E-3,-1.6003309E-3,-3.5332842E-3,2.3086534E-3],"categories":[],"categories_nodes":[],"categories_segments":[],"categories_sizes":[],"default_left":[0,0,0,0,0,0,0,0,0,0,0,0,0,0,0],"id":35,"left_children":[1,3,5,7,9,11,13,-1,-1,-1,-1,-1,-1,-1,-1],"loss_changes":[6.0496014E1,3.1942657E1,1.2106789E1,1.120949E1,9.641777E0,7.217987E0,7.501475E0,0E0,0E0,0E0,0E0,0E0,0E0,0E0,0E0],"parents":[2147483647,0,0,1,1,2,2,3,3,4,4,5,5,6,6],"right_children":[2,4,6,8,10,12,14,-1,-1,-1,-1,-1,-1,-1,-1],"split_conditions":[2.2E1,2.2E1,2.1E1,1.7E1,4.28E-1,1.9E1,4.58E-1,1.97253E-3,-7.285083E-4,-5.2960278E-3,5.7362113E-3,-5.7245325E-3,-1.6003309E-3,-3.5332842E-3,2.3086534E-3],"split_indices":[27,80,81,33,59,23,59,0,0,0,0,0,0,0,0],"split_type":[0,0,0,0,0,0,0,0,0,0,0,0,0,0,0],"sum_hessian":[1.1880894E3,8.9676526E2,2.9132413E2,6.697894E2,2.2697585E2,2.02025E2,8.929913E1,4.324239E2,2.373655E2,7.4694576E0,2.195064E2,1.3987155E2,6.2153454E1,3.586905E1,5.3430088E1],"tree_param":{"num_deleted":"0","num_feature":"106","num_nodes":"15","size_leaf_vector":"1"}},{"base_weights":[-8.2385674E-2,-2.0973468E-1,3.091197E-1,-4.6615195E-1,-7.292309E-2,4.4289935E-1,5.0677625E-3,-1.7598066E-4,-5.401256E-3,-6.7576235E-5,-4.185259E-3,1.3281801E-3,5.578348E-3,-1.4743366E-3,5.3564E-3],"categories":[],"categories_nodes":[],"categories_segments":[],"categories_sizes":[],"default_left":[0,0,0,0,0,0,0,0,0,0,0,0,0,0,0],"id":36,"left_children":[1,3,5,7,9,11,13,-1,-1,-1,-1,-1,-1,-1,-1],"loss_changes":[5.932673E1,3.1450233E1,1.1880905E1,1.0345108E1,1.3406659E1,7.155918E0,7.3834453E0,0E0,0E0,0E0,0E0,0E0,0E0,0E0,0E0],"parents":[2147483647,0,0,1,1,2,2,3,3,4,4,5,5,6,6],"right_children":[2,4,6,8,10,12,14,-1,-1,-1,-1,-1,-1,-1,-1],"split_conditions":[2.2E1,-1.4E0,2.1E1,1.065E2,6.5E0,8E0,2.8E1,-1.7598066E-4,-5.401256E-3,-6.7576235E-5,-4.185259E-3,1.3281801E-3,5.578348E-3,-1.4743366E-3,5.3564E-3],"split_indices":[27,77,81,76,25,30,85,0,0,0,0,0,0,0,0],"split_type":[0,0,0,0,0,0,0,0,0,0,0,0,0,0,0],"sum_hessian":[1.1876178E3,8.964761E2,2.9114175E2,3.1106308E2,5.8541296E2,2.0186613E2,8.927562E1,4.4212112E1,2.6685098E2,4.9220096E2,9.3212036E1,5.517271E1,1.4669344E2,6.990505E1,1.9370564E1],"tree_param":{"num_deleted":"0","num_feature":"106","num_nodes":"15","size_leaf_vector":"1"}},{"base_weights":[8.238566E-2,2.0973465E-1,-3.091197E-1,4.661519E-1,7.292307E-2,-4.4289935E-1,-5.067788E-3,1.7598007E-4,5.4012556E-3,6.757599E-5,4.1852593E-3,-1.3281796E-3,-5.578348E-3,1.4743366E-3,-5.3564003E-3],"categories":[],"categories_nodes":[],"categories_segments":[],"categories_sizes":[],"default_left":[0,0,0,0,0,0,0,0,0,0,0,0,0,0,0],"id":37,"left_children":[1,3,5,7,9,11,13,-1,-1,-1,-1,-1,-1,-1,-1],"loss_changes":[5.932672E1,3.1450233E1,1.1880901E1,1.0345108E1,1.3406664E1,7.1559258E0,7.383447E0,0E0,0E0,0E0,0E0,0E0,0E0,0E0,0E0],"parents":[2147483647,0,0,1,1,2,2,3,3,4,4,5,5,6,6],"right_children":[2,4,6,8,10,12,14,-1,-1,-1,-1,-1,-1,-1,-1],"split_conditions":[2.2E1,-1.4E0,2.1E1,1.065E2,6.5E0,8E0,2.8E1,1.7598007E-4,5.4012556E-3,6.757599E-5,4.1852593E-3,-1.3281796E-3,-5.578348E-3,1.4743366E-3,-5.3564003E-3],"split_indices":[27,77,81,76,25,30,85,0,0,0,0,0,0,0,0],"split_type":[0,0,0,0,0,0,0,0,0,0,0,0,0,0,0],"sum_hessian":[1.1876178E3,8.964761E2,2.9114175E2,3.1106308E2,5.85413E2,2.0186613E2,8.927562E1,4.4212112E1,2.6685098E2,4.9220096E2,9.3212036E1,5.5172707E1,1.4669342E2,6.990505E1,1.9370564E1],"tree_param":{"num_deleted":"0","num_feature":"106","num_nodes":"15","size_leaf_vector":"1"}},{"base_weights":[-8.15942E-2,-1.9084634E-1,3.664274E-1,-3.7997553E-1,4.7264616E-3,9.513897E-2,5.148564E-1,-2.9768546E-3,-5.9591574E-3,-3.4612927E-3,1.1745016E-3,8.320705E-3,1.547029E-5,5.583317E-3,-8.711534E-3],"categories":[],"categories_nodes":[],"categories_segments":[],"categories_sizes":[],"default_left":[0,0,0,0,0,0,0,0,0,0,0,0,0,0,0],"id":38,"left_children":[1,3,5,7,9,11,13,-1,-1,-1,-1,-1,-1,-1,-1],"loss_changes":[5.822608E1,3.5357788E1,9.344276E0,8.457794E0,1.8665205E1,5.7730727E0,9.558247E0,0E0,0E0,0E0,0E0,0E0,0E0,0E0,0E0],"parents":[2147483647,0,0,1,1,2,2,3,3,4,4,5,5,6,6],"right_children":[2,4,6,8,10,12,14,-1,-1,-1,-1,-1,-1,-1,-1],"split_conditions":[2.4E1,3.66E-1,4.65E-1,2.6E1,6E0,3E0,-1.9E0,-2.9768546E-3,-5.9591574E-3,-3.4612927E-3,1.1745016E-3,8.320705E-3,1.547029E-5,5.583317E-3,-8.711534E-3],"split_indices":[27,62,55,80,28,82,25,0,0,0,0,0,0,0,0],"split_type":[0,0,0,0,0,0,0,0,0,0,0,0,0,0,0],"sum_hessian":[1.1871377E3,9.5486383E2,2.3227393E2,4.8494937E2,4.6991446E2,8.272174E1,1.4955219E2,3.5286053E2,1.3208882E2,1.1376064E2,3.561538E2,8.432765E0,7.428898E1,1.4558281E2,3.9693651E0],"tree_param":{"num_deleted":"0","num_feature":"106","num_nodes":"15","size_leaf_vector":"1"}},{"base_weights":[8.159418E-2,1.908463E-1,-3.664274E-1,3.799755E-1,-4.7265063E-3,-9.5139E-2,-5.148564E-1,2.9768543E-3,5.9591564E-3,3.4612922E-3,-1.1745021E-3,-8.320705E-3,-1.5470596E-5,-5.583317E-3,8.711534E-3],"categories":[],"categories_nodes":[],"categories_segments":[],"categories_sizes":[],"default_left":[0,0,0,0,0,0,0,0,0,0,0,0,0,0,0],"id":39,"left_children":[1,3,5,7,9,11,13,-1,-1,-1,-1,-1,-1,-1,-1],"loss_changes":[5.8226074E1,3.5357796E1,9.344273E0,8.457794E0,1.8665205E1,5.7730727E0,9.558243E0,0E0,0E0,0E0,0E0,0E0,0E0,0E0,0E0],"parents":[2147483647,0,0,1,1,2,2,3,3,4,4,5,5,6,6],"right_children":[2,4,6,8,10,12,14,-1,-1,-1,-1,-1,-1,-1,-1],"split_conditions":[2.4E1,3.66E-1,4.65E-1,2.6E1,6E0,3E0,-1.9E0,2.9768543E-3,5.9591564E-3,3.4612922E-3,-1.1745021E-3,-8.320705E-3,-1.5470596E-5,-5.583317E-3,8.711534E-3],"split_indices":[27,62,55,80,28,82,25,0,0,0,0,0,0,0,0],"split_type":[0,0,0,0,0,0,0,0,0,0,0,0,0,0,0],"sum_hessian":[1.1871377E3,9.5486383E2,2.3227393E2,4.8494937E2,4.6991446E2,8.272174E1,1.4955219E2,3.5286053E2,1.3208882E2,1.1376064E2,3.561538E2,8.432765E0,7.428897E1,1.4558281E2,3.9693651E0],"tree_param":{"num_deleted":"0","num_feature":"106","num_nodes":"15","size_leaf_vector":"1"}},{"base_weights":[-8.081469E-2,-2.0583372E-1,3.037429E-1,-7.2300844E-2,-4.611226E-1,4.352851E-1,5.1540267E-3,5.5705485E-5,-2.9918437E-3,7.5094197E-3,-4.8143063E-3,2.9956754E-3,7.022507E-3,4.250967E-3,-1.8435469E-3],"categories":[],"categories_nodes":[],"categories_segments":[],"categories_sizes":[],"default_left":[0,0,0,0,0,0,0,0,0,0,0,0,0,0,0],"id":40,"left_children":[1,3,5,7,9,11,13,-1,-1,-1,-1,-1,-1,-1,-1],"loss_changes":[5.716255E1,3.0541176E1,1.1458317E1,1.0426653E1,7.9387207E0,7.1281013E0,7.260415E0,0E0,0E0,0E0,0E0,0E0,0E0,0E0,0E0],"parents":[2147483647,0,0,1,1,2,2,3,3,4,4,5,5,6,6],"right_children":[2,4,6,8,10,12,14,-1,-1,-1,-1,-1,-1,-1,-1],"split_conditions":[2.2E1,1.9E1,2.1E1,1.7E1,9.4E0,1.9E1,4.1E1,5.5705485E-5,-2.9918437E-3,7.5094197E-3,-4.8143063E-3,2.9956754E-3,7.022507E-3,4.250967E-3,-1.8435469E-3],"split_indices":[27,80,81,88,60,35,57,0,0,0,0,0,0,0,0],"split_type":[0,0,0,0,0,0,0,0,0,0,0,0,0,0,0],"sum_hessian":[1.1866785E3,8.958907E2,2.907878E2,5.8905786E2,3.068328E2,2.015416E2,8.9246216E1,4.3926718E2,1.4979066E2,4.463369E0,3.0236945E2,1.3502231E2,6.651929E1,2.7364525E1,6.188169E1],"tree_param":{"num_deleted":"0","num_feature":"106","num_nodes":"15","size_leaf_vector":"1"}},{"base_weights":[8.081471E-2,2.0583373E-1,-3.037429E-1,7.2300844E-2,4.6112263E-1,-4.352851E-1,-5.154011E-3,-5.570544E-5,2.9918437E-3,-7.50942E-3,4.8143063E-3,-2.9956754E-3,-7.022507E-3,-4.250967E-3,1.843547E-3],"categories":[],"categories_nodes":[],"categories_segments":[],"categories_sizes":[],"default_left":[0,0,0,0,0,0,0,0,0,0,0,0,0,0,0],"id":41,"left_children":[1,3,5,7,9,11,13,-1,-1,-1,-1,-1,-1,-1,-1],"loss_changes":[5.7162556E1,3.0541183E1,1.1458317E1,1.0426653E1,7.938713E0,7.1281013E0,7.2604156E0,0E0,0E0,0E0,0E0,0E0,0E0,0E0,0E0],"parents":[2147483647,0,0,1,1,2,2,3,3,4,4,5,5,6,6],"right_children":[2,4,6,8,10,12,14,-1,-1,-1,-1,-1,-1,-1,-1],"split_conditions":[2.2E1,1.9E1,2.1E1,1.7E1,9.4E0,1.9E1,4.1E1,-5.570544E-5,2.9918437E-3,-7.50942E-3,4.8143063E-3,-2.9956754E-3,-7.022507E-3,-4.250967E-3,1.843547E-3],"split_indices":[27,80,81,88,60,35,57,0,0,0,0,0,0,0,0],"split_type":[0,0,0,0,0,0,0,0,0,0,0,0,0,0,0],"sum_hessian":[1.1866785E3,8.958907E2,2.907878E2,5.8905786E2,3.068328E2,2.015416E2,8.9246216E1,4.3926718E2,1.4979066E2,4.4633684E0,3.0236945E2,1.3502231E2,6.651929E1,2.7364525E1,6.188169E1],"tree_param":{"num_deleted":"0","num_feature":"106","num_nodes":"15","size_leaf_vector":"1"}},{"base_weights":[-8.003244E-2,-1.8731077E-1,3.6022875E-1,-3.7324172E-1,4.752868E-3,9.371559E-2,5.06278E-1,-2.919558E-3,-5.868666E-3,-3.4247173E-3,1.1628178E-3,4.093384E-3,-1.1797406E-3,5.494925E-3,-8.669216E-3],"categories":[],"categories_nodes":[],"categories_segments":[],"categories_sizes":[],"default_left":[0,0,0,0,0,0,0,0,0,0,0,0,0,0,0],"id":42,"left_children":[1,3,5,7,9,11,13,-1,-1,-1,-1,-1,-1,-1,-1],"loss_changes":[5.6136887E1,3.411279E1,9.019402E0,8.256882E0,1.8273472E1,5.6398315E0,9.392479E0,0E0,0E0,0E0,0E0,0E0,0E0,0E0,0E0],"parents":[2147483647,0,0,1,1,2,2,3,3,4,4,5,5,6,6],"right_children":[2,4,6,8,10,12,14,-1,-1,-1,-1,-1,-1,-1,-1],"split_conditions":[2.4E1,3.66E-1,4.65E-1,2.6E1,6E0,8.97E1,-1.9E0,-2.919558E-3,-5.868666E-3,-3.4247173E-3,1.1628178E-3,4.093384E-3,-1.1797406E-3,5.494925E-3,-8.669216E-3],"split_indices":[27,62,55,80,28,58,25,0,0,0,0,0,0,0,0],"split_type":[0,0,0,0,0,0,0,0,0,0,0,0,0,0,0],"sum_hessian":[1.1861445E3,9.542076E2,2.3193698E2,4.8436514E2,4.6984244E2,8.268805E1,1.4924893E2,3.525745E2,1.3179063E2,1.1372136E2,3.561211E2,3.282031E1,4.9867744E1,1.4527692E2,3.9720175E0],"tree_param":{"num_deleted":"0","num_feature":"106","num_nodes":"15","size_leaf_vector":"1"}},{"base_weights":[8.003245E-2,1.873108E-1,-3.6022875E-1,3.7324172E-1,-4.752819E-3,-9.371554E-2,-5.06278E-1,2.919558E-3,5.868666E-3,3.4247178E-3,-1.1628172E-3,-4.0933834E-3,1.1797413E-3,-5.494925E-3,8.669217E-3],"categories":[],"categories_nodes":[],"categories_segments":[],"categories_sizes":[],"default_left":[0,0,0,0,0,0,0,0,0,0,0,0,0,0,0],"id":43,"left_children":[1,3,5,7,9,11,13,-1,-1,-1,-1,-1,-1,-1,-1],"loss_changes":[5.6136894E1,3.411278E1,9.019407E0,8.256882E0,1.827347E1,5.639833E0,9.392479E0,0E0,0E0,0E0,0E0,0E0,0E0,0E0,0E0],"parents":[2147483647,0,0,1,1,2,2,3,3,4,4,5,5,6,6],"right_children":[2,4,6,8,10,12,14,-1,-1,-1,-1,-1,-1,-1,-1],"split_conditions":[2.4E1,3.66E-1,4.65E-1,2.6E1,6E0,8.97E1,-1.9E0,2.919558E-3,5.868666E-3,3.4247178E-3,-1.1628172E-3,-4.0933834E-3,1.1797413E-3,-5.494925E-3,8.669217E-3],"split_indices":[27,62,55,80,28,58,25,0,0,0,0,0,0,0,0],"split_type":[0,0,0,0,0,0,0,0,0,0,0,0,0,0,0],"sum_hessian":[1.1861445E3,9.542076E2,2.3193698E2,4.843651E2,4.6984244E2,8.268805E1,1.4924893E2,3.525745E2,1.3179063E2,1.1372135E2,3.5612106E2,3.2820305E1,4.986774E1,1.4527692E2,3.9720178E0],"tree_param":{"num_deleted":"0","num_feature":"106","num_nodes":"15","size_leaf_vector":"1"}},{"base_weights":[-7.927508E-2,-2.0200968E-1,2.9847324E-1,-9.607125E-2,-5.1422554E-1,4.2788184E-1,5.161609E-3,-1.8984713E-3,7.476272E-4,2.059831E-3,-5.7112384E-3,6.062784E-3,2.2778916E-3,3.4533143E-3,-2.251435E-3],"categories":[],"categories_nodes":[],"categories_segments":[],"categories_sizes":[],"default_left":[0,0,0,0,0,0,0,0,0,0,0,0,0,0,0],"id":44,"left_children":[1,3,5,7,9,11,13,-1,-1,-1,-1,-1,-1,-1,-1],"loss_changes":[5.507655E1,2.9594284E1,1.1058765E1,1.07542095E1,9.412846E0,7.0791054E0,7.145977E0,0E0,0E0,0E0,0E0,0E0,0E0,0E0,0E0],"parents":[2147483647,0,0,1,1,2,2,3,3,4,4,5,5,6,6],"right_children":[2,4,6,8,10,12,14,-1,-1,-1,-1,-1,-1,-1,-1],"split_conditions":[2.2E1,2.2E1,2.1E1,1.7E1,4.34E-1,1.95E1,4.58E-1,-1.8984713E-3,7.476272E-4,2.059831E-3,-5.7112384E-3,6.062784E-3,2.2778916E-3,3.4533143E-3,-2.251435E-3],"split_indices":[27,80,81,33,59,74,59,0,0,0,0,0,0,0,0],"split_type":[0,0,0,0,0,0,0,0,0,0,0,0,0,0,0],"sum_hessian":[1.1856467E3,8.952389E2,2.9040778E2,6.6940857E2,2.2583034E2,2.0118605E2,8.922173E1,4.32103E2,2.3730559E2,1.6343023E1,2.094873E2,1.0528613E2,9.589992E1,3.5817867E1,5.3403866E1],"tree_param":{"num_deleted":"0","num_feature":"106","num_nodes":"15","size_leaf_vector":"1"}},{"base_weights":[7.927506E-2,2.0200966E-1,-2.9847327E-1,9.607123E-2,5.142255E-1,-4.2788187E-1,-5.1616104E-3,1.8984713E-3,-7.476277E-4,-2.0598315E-3,5.7112384E-3,-6.062784E-3,-2.2778919E-3,-3.4533138E-3,2.251435E-3],"categories":[],"categories_nodes":[],"categories_segments":[],"categories_sizes":[],"default_left":[0,0,0,0,0,0,0,0,0,0,0,0,0,0,0],"id":45,"left_children":[1,3,5,7,9,11,13,-1,-1,-1,-1,-1,-1,-1,-1],"loss_changes":[5.507655E1,2.9594284E1,1.1058771E1,1.0754213E1,9.412846E0,7.0790977E0,7.1459765E0,0E0,0E0,0E0,0E0,0E0,0E0,0E0,0E0],"parents":[2147483647,0,0,1,1,2,2,3,3,4,4,5,5,6,6],"right_children":[2,4,6,8,10,12,14,-1,-1,-1,-1,-1,-1,-1,-1],"split_conditions":[2.2E1,2.2E1,2.1E1,1.7E1,4.34E-1,1.95E1,4.58E-1,1.8984713E-3,-7.476277E-4,-2.0598315E-3,5.7112384E-3,-6.062784E-3,-2.2778919E-3,-3.4533138E-3,2.251435E-3],"split_indices":[27,80,81,33,59,74,59,0,0,0,0,0,0,0,0],"split_type":[0,0,0,0,0,0,0,0,0,0,0,0,0,0,0],"sum_hessian":[1.1856467E3,8.952389E2,2.9040778E2,6.6940857E2,2.2583034E2,2.0118605E2,8.922173E1,4.32103E2,2.3730557E2,1.6343023E1,2.094873E2,1.0528613E2,9.589991E1,3.581787E1,5.3403866E1],"tree_param":{"num_deleted":"0","num_feature":"106","num_nodes":"15","size_leaf_vector":"1"}},{"base_weights":[-7.851489E-2,-1.8388107E-1,3.542345E-1,-3.6729088E-1,5.379021E-3,9.222826E-2,4.9804264E-1,-4.7641173E-3,-2.14464E-3,-3.3738904E-3,1.1543299E-3,8.179354E-3,3.4251177E-6,5.41011E-3,-8.629215E-3],"categories":[],"categories_nodes":[],"categories_segments":[],"categories_sizes":[],"default_left":[0,0,0,0,0,0,0,0,0,0,0,0,0,0,0],"id":46,"left_children":[1,3,5,7,9,11,13,-1,-1,-1,-1,-1,-1,-1,-1],"loss_changes":[5.4147896E1,3.3135162E1,8.717627E0,7.982025E0,1.779703E1,5.57761E0,9.234993E0,0E0,0E0,0E0,0E0,0E0,0E0,0E0,0E0],"parents":[2147483647,0,0,1,1,2,2,3,3,4,4,5,5,6,6],"right_children":[2,4,6,8,10,12,14,-1,-1,-1,-1,-1,-1,-1,-1],"split_conditions":[2.4E1,3.66E-1,4.65E-1,-2E0,6E0,3E0,-1.9E0,-4.7641173E-3,-2.14464E-3,-3.3738904E-3,1.1543299E-3,8.179354E-3,3.4251177E-6,5.41011E-3,-8.629215E-3],"split_indices":[27,62,55,77,28,82,25,0,0,0,0,0,0,0,0],"split_type":[0,0,0,0,0,0,0,0,0,0,0,0,0,0,0],"sum_hessian":[1.1850994E3,9.5351245E2,2.3158693E2,4.837628E2,4.6974966E2,8.2648926E1,1.48938E2,2.81004E2,2.0275877E2,1.1366602E2,3.5608362E2,8.400525E0,7.4248405E1,1.4496368E2,3.974317E0],"tree_param":{"num_deleted":"0","num_feature":"106","num_nodes":"15","size_leaf_vector":"1"}},{"base_weights":[7.851489E-2,1.8388109E-1,-3.542345E-1,3.6729088E-1,-5.3790067E-3,-9.2228256E-2,-4.9804264E-1,4.7641173E-3,2.1446403E-3,3.3738906E-3,-1.1543299E-3,-8.1793545E-3,-3.4249515E-6,-5.41011E-3,8.629215E-3],"categories":[],"categories_nodes":[],"categories_segments":[],"categories_sizes":[],"default_left":[0,0,0,0,0,0,0,0,0,0,0,0,0,0,0],"id":47,"left_children":[1,3,5,7,9,11,13,-1,-1,-1,-1,-1,-1,-1,-1],"loss_changes":[5.4147896E1,3.3135155E1,8.717623E0,7.982025E0,1.7797033E1,5.5776114E0,9.234993E0,0E0,0E0,0E0,0E0,0E0,0E0,0E0,0E0],"parents":[2147483647,0,0,1,1,2,2,3,3,4,4,5,5,6,6],"right_children":[2,4,6,8,10,12,14,-1,-1,-1,-1,-1,-1,-1,-1],"split_conditions":[2.4E1,3.66E-1,4.65E-1,-2E0,6E0,3E0,-1.9E0,4.7641173E-3,2.1446403E-3,3.3738906E-3,-1.1543299E-3,-8.1793545E-3,-3.4249515E-6,-5.41011E-3,8.629215E-3],"split_indices":[27,62,55,77,28,82,25,0,0,0,0,0,0,0,0],"split_type":[0,0,0,0,0,0,0,0,0,0,0,0,0,0,0],"sum_hessian":[1.1850994E3,9.5351245E2,2.3158693E2,4.837628E2,4.6974966E2,8.2648926E1,1.48938E2,2.81004E2,2.0275877E2,1.1366602E2,3.5608362E2,8.400525E0,7.4248405E1,1.4496368E2,3.9743173E0],"tree_param":{"num_deleted":"0","num_feature":"106","num_nodes":"15","size_leaf_vector":"1"}},{"base_weights":[-7.776874E-2,-1.8211837E-1,3.5100955E-1,-4.903272E-2,-4.3887362E-1,9.141936E-2,4.9363986E-1,4.0060352E-4,-2.7779539E-3,-4.8048464E-3,1.2242176E-3,8.11808E-3,3.391501E-6,5.363235E-3,-8.552126E-3],"categories":[],"categories_nodes":[],"categories_segments":[],"categories_sizes":[],"default_left":[0,0,0,0,0,0,0,0,0,0,0,0,0,0,0],"id":48,"left_children":[1,3,5,7,9,11,13,-1,-1,-1,-1,-1,-1,-1,-1],"loss_changes":[5.310927E1,3.2582813E1,8.559298E0,1.2842205E1,7.6638527E0,5.4873004E0,9.080776E0,0E0,0E0,0E0,0E0,0E0,0E0,0E0,0E0],"parents":[2147483647,0,0,1,1,2,2,3,3,4,4,5,5,6,6],"right_children":[2,4,6,8,10,12,14,-1,-1,-1,-1,-1,-1,-1,-1],"split_conditions":[2.4E1,1.9E1,4.65E-1,1.6E1,1.58E1,3E0,-1.9E0,4.0060352E-4,-2.7779539E-3,-4.8048464E-3,1.2242176E-3,8.11808E-3,3.391501E-6,5.363235E-3,-8.552126E-3],"split_indices":[27,80,55,88,18,82,25,0,0,0,0,0,0,0,0],"split_type":[0,0,0,0,0,0,0,0,0,0,0,0,0,0,0],"sum_hessian":[1.18456E3,9.531677E2,2.313924E2,6.285554E2,3.246123E2,8.263531E1,1.4875708E2,4.5296875E2,1.7558665E2,3.0234244E2,2.2269855E1,8.386908E0,7.4248405E1,1.4477805E2,3.97903E0],"tree_param":{"num_deleted":"0","num_feature":"106","num_nodes":"15","size_leaf_vector":"1"}},{"base_weights":[7.776876E-2,1.8211839E-1,-3.5100955E-1,4.9032737E-2,4.3887362E-1,-9.141933E-2,-4.9363986E-1,-4.0060325E-4,2.7779539E-3,4.8048464E-3,-1.2242174E-3,-8.11808E-3,-3.3910892E-6,-5.363235E-3,8.552126E-3],"categories":[],"categories_nodes":[],"categories_segments":[],"categories_sizes":[],"default_left":[0,0,0,0,0,0,0,0,0,0,0,0,0,0,0],"id":49,"left_children":[1,3,5,7,9,11,13,-1,-1,-1,-1,-1,-1,-1,-1],"loss_changes":[5.3109272E1,3.258281E1,8.559301E0,1.2842201E1,7.6638412E0,5.4873023E0,9.080772E0,0E0,0E0,0E0,0E0,0E0,0E0,0E0,0E0],"parents":[2147483647,0,0,1,1,2,2,3,3,4,4,5,5,6,6],"right_children":[2,4,6,8,10,12,14,-1,-1,-1,-1,-1,-1,-1,-1],"split_conditions":[2.4E1,1.9E1,4.65E-1,1.6E1,1.58E1,3E0,-1.9E0,-4.0060325E-4,2.7779539E-3,4.8048464E-3,-1.2242174E-3,-8.11808E-3,-3.3910892E-6,-5.363235E-3,8.552126E-3],"split_indices":[27,80,55,88,18,82,25,0,0,0,0,0,0,0,0],"split_type":[0,0,0,0,0,0,0,0,0,0,0,0,0,0,0],"sum_hessian":[1.18456E3,9.531677E2,2.313924E2,6.2855536E2,3.246123E2,8.263531E1,1.4875708E2,4.5296875E2,1.7558665E2,3.0234247E2,2.2269855E1,8.386907E0,7.42484E1,1.4477806E2,3.97903E0],"tree_param":{"num_deleted":"0","num_feature":"106","num_nodes":"15","size_leaf_vector":"1"}},{"base_weights":[-7.702831E-2,-1.9651991E-1,2.910767E-1,-9.319972E-2,-5.0198525E-1,4.2462257E-1,1.993971E-2,-1.8567214E-3,7.520018E-4,8.6795253E-4,-5.713738E-3,-2.5327422E-3,4.8612645E-3,-4.465219E-3,1.8283702E-3],"categories":[],"categories_nodes":[],"categories_segments":[],"categories_sizes":[],"default_left":[0,0,0,0,0,0,0,0,0,0,0,0,0,0,0],"id":50,"left_children":[1,3,5,7,9,11,13,-1,-1,-1,-1,-1,-1,-1,-1],"loss_changes":[5.2180107E1,2.8206402E1,1.0521276E1,1.0450041E1,9.284092E0,8.244484E0,7.453328E0,0E0,0E0,0E0,0E0,0E0,0E0,0E0,0E0],"parents":[2147483647,0,0,1,1,2,2,3,3,4,4,5,5,6,6],"right_children":[2,4,6,8,10,12,14,-1,-1,-1,-1,-1,-1,-1,-1],"split_conditions":[2.2E1,2.2E1,1.9E1,1.7E1,4.36E-1,4.5E0,1.7E1,-1.8567214E-3,7.520018E-4,8.6795253E-4,-5.713738E-3,-2.5327422E-3,4.8612645E-3,-4.465219E-3,1.8283702E-3],"split_indices":[27,80,80,33,59,20,90,0,0,0,0,0,0,0,0],"split_type":[0,0,0,0,0,0,0,0,0,0,0,0,0,0,0],"sum_hessian":[1.1840032E3,8.9420044E2,2.898028E2,6.691673E2,2.2503314E2,1.9378821E2,9.601458E1,4.3189874E2,2.3726851E2,2.3698048E1,2.013351E2,1.58600855E1,1.7792813E2,2.440085E1,7.161373E1],"tree_param":{"num_deleted":"0","num_feature":"106","num_nodes":"15","size_leaf_vector":"1"}},{"base_weights":[7.702832E-2,1.9651993E-1,-2.910767E-1,9.319974E-2,5.0198525E-1,-4.246226E-1,-1.9939734E-2,1.8567217E-3,-7.52002E-4,-8.6795253E-4,5.7137385E-3,2.532742E-3,-4.8612645E-3,4.465219E-3,-1.8283705E-3],"categories":[],"categories_nodes":[],"categories_segments":[],"categories_sizes":[],"default_left":[0,0,0,0,0,0,0,0,0,0,0,0,0,0,0],"id":51,"left_children":[1,3,5,7,9,11,13,-1,-1,-1,-1,-1,-1,-1,-1],"loss_changes":[5.2180115E1,2.8206406E1,1.0521278E1,1.0450046E1,9.284096E0,8.244484E0,7.453328E0,0E0,0E0,0E0,0E0,0E0,0E0,0E0,0E0],"parents":[2147483647,0,0,1,1,2,2,3,3,4,4,5,5,6,6],"right_children":[2,4,6,8,10,12,14,-1,-1,-1,-1,-1,-1,-1,-1],"split_conditions":[2.2E1,2.2E1,1.9E1,1.7E1,4.36E-1,4.5E0,1.7E1,1.8567217E-3,-7.52002E-4,-8.6795253E-4,5.7137385E-3,2.532742E-3,-4.8612645E-3,4.465219E-3,-1.8283705E-3],"split_indices":[27,80,80,33,59,20,90,0,0,0,0,0,0,0,0],"split_type":[0,0,0,0,0,0,0,0,0,0,0,0,0,0,0],"sum_hessian":[1.1840032E3,8.9420044E2,2.898028E2,6.691673E2,2.2503314E2,1.9378822E2,9.601458E1,4.3189874E2,2.3726852E2,2.3698048E1,2.013351E2,1.58600855E1,1.7792813E2,2.440085E1,7.161373E1],"tree_param":{"num_deleted":"0","num_feature":"106","num_nodes":"15","size_leaf_vector":"1"}},{"base_weights":[-7.6300405E-2,-1.7878544E-1,3.4515986E-1,-3.5819256E-1,6.0182735E-3,8.994603E-2,4.8567185E-1,-2.7956953E-3,-5.656862E-3,-3.3239876E-3,1.1462629E-3,-4.267897E-4,5.7827756E-3,5.2809576E-3,-8.504151E-3],"categories":[],"categories_nodes":[],"categories_segments":[],"categories_sizes":[],"default_left":[0,0,0,0,0,0,0,0,0,0,0,0,0,0,0],"id":52,"left_children":[1,3,5,7,9,11,13,-1,-1,-1,-1,-1,-1,-1,-1],"loss_changes":[5.1221363E1,3.161268E1,8.276672E0,7.7342415E0,1.73359E1,5.439768E0,8.917858E0,0E0,0E0,0E0,0E0,0E0,0E0,0E0,0E0],"parents":[2147483647,0,0,1,1,2,2,3,3,4,4,5,5,6,6],"right_children":[2,4,6,8,10,12,14,-1,-1,-1,-1,-1,-1,-1,-1],"split_conditions":[2.4E1,3.66E-1,4.65E-1,2.6E1,6E0,1.58E1,-1.9E0,-2.7956953E-3,-5.656862E-3,-3.3239876E-3,1.1462629E-3,-4.267897E-4,5.7827756E-3,5.2809576E-3,-8.504151E-3],"split_indices":[27,62,55,80,28,18,25,0,0,0,0,0,0,0,0],"split_type":[0,0,0,0,0,0,0,0,0,0,0,0,0,0,0],"sum_hessian":[1.183433E3,9.5241364E2,2.3101936E2,4.8278683E2,4.696268E2,8.261136E1,1.4840799E2,3.5182245E2,1.3096439E2,1.1359865E2,3.5602817E2,6.568477E1,1.6926594E1,1.4442685E2,3.981154E0],"tree_param":{"num_deleted":"0","num_feature":"106","num_nodes":"15","size_leaf_vector":"1"}},{"base_weights":[7.63004E-2,1.7878544E-1,-3.4515986E-1,3.581926E-1,-6.018295E-3,-8.994605E-2,-4.8567185E-1,2.7956953E-3,5.656863E-3,3.3239874E-3,-1.1462631E-3,4.2678963E-4,-5.7827756E-3,-5.2809585E-3,8.504151E-3],"categories":[],"categories_nodes":[],"categories_segments":[],"categories_sizes":[],"default_left":[0,0,0,0,0,0,0,0,0,0,0,0,0,0,0],"id":53,"left_children":[1,3,5,7,9,11,13,-1,-1,-1,-1,-1,-1,-1,-1],"loss_changes":[5.1221367E1,3.1612688E1,8.27667E0,7.7342453E0,1.7335897E1,5.439768E0,8.917858E0,0E0,0E0,0E0,0E0,0E0,0E0,0E0,0E0],"parents":[2147483647,0,0,1,1,2,2,3,3,4,4,5,5,6,6],"right_children":[2,4,6,8,10,12,14,-1,-1,-1,-1,-1,-1,-1,-1],"split_conditions":[2.4E1,3.66E-1,4.65E-1,2.6E1,6E0,1.58E1,-1.9E0,2.7956953E-3,5.656863E-3,3.3239874E-3,-1.1462631E-3,4.2678963E-4,-5.7827756E-3,-5.2809585E-3,8.504151E-3],"split_indices":[27,62,55,80,28,18,25,0,0,0,0,0,0,0,0],"split_type":[0,0,0,0,0,0,0,0,0,0,0,0,0,0,0],"sum_hessian":[1.183433E3,9.5241364E2,2.3101936E2,4.8278683E2,4.696268E2,8.261136E1,1.48408E2,3.5182245E2,1.3096439E2,1.13598656E2,3.5602817E2,6.568477E1,1.6926594E1,1.4442685E2,3.981154E0],"tree_param":{"num_deleted":"0","num_feature":"106","num_nodes":"15","size_leaf_vector":"1"}},{"base_weights":[-7.5581975E-2,-1.928954E-1,2.860253E-1,-4.3366498E-1,-6.5328114E-2,4.9838707E-1,1.19300395E-1,6.36243E-5,-5.065987E-3,-1.8796409E-5,-3.9759125E-3,7.046806E-3,2.5891508E-3,-3.5169694E-4,5.224179E-3],"categories":[],"categories_nodes":[],"categories_segments":[],"categories_sizes":[],"default_left":[0,0,0,0,0,0,0,0,0,0,0,0,0,0,0],"id":54,"left_children":[1,3,5,7,9,11,13,-1,-1,-1,-1,-1,-1,-1,-1],"loss_changes":[5.0275745E1,2.7444382E1,1.0222136E1,9.939278E0,1.2350017E1,6.11137E0,1.0229964E1,0E0,0E0,0E0,0E0,0E0,0E0,0E0,0E0],"parents":[2147483647,0,0,1,1,2,2,3,3,4,4,5,5,6,6],"right_children":[2,4,6,8,10,12,14,-1,-1,-1,-1,-1,-1,-1,-1],"split_conditions":[2.2E1,-1.4E0,1.4E1,1.065E2,6.5E0,1.95E1,2.8E1,6.36243E-5,-5.065987E-3,-1.8796409E-5,-3.9759125E-3,7.046806E-3,2.5891508E-3,-3.5169694E-4,5.224179E-3],"split_indices":[27,77,85,76,25,74,28,0,0,0,0,0,0,0,0],"split_type":[0,0,0,0,0,0,0,0,0,0,0,0,0,0,0],"sum_hessian":[1.1828505E3,8.934591E2,2.8939136E2,3.086035E2,5.848556E2,1.264014E2,1.6298997E2,4.400757E1,2.6459592E2,4.9192416E2,9.293145E1,6.686112E1,5.9540276E1,1.18496284E2,4.4493687E1],"tree_param":{"num_deleted":"0","num_feature":"106","num_nodes":"15","size_leaf_vector":"1"}},{"base_weights":[7.5581945E-2,1.9289535E-1,-2.8602532E-1,4.3366495E-1,6.532806E-2,-4.9838707E-1,-1.193004E-1,-6.3624364E-5,5.0659864E-3,1.879582E-5,3.9759125E-3,-7.046806E-3,-2.5891508E-3,3.5169686E-4,-5.224179E-3],"categories":[],"categories_nodes":[],"categories_segments":[],"categories_sizes":[],"default_left":[0,0,0,0,0,0,0,0,0,0,0,0,0,0,0],"id":55,"left_children":[1,3,5,7,9,11,13,-1,-1,-1,-1,-1,-1,-1,-1],"loss_changes":[5.0275734E1,2.7444386E1,1.0222139E1,9.939278E0,1.2350021E1,6.111372E0,1.0229963E1,0E0,0E0,0E0,0E0,0E0,0E0,0E0,0E0],"parents":[2147483647,0,0,1,1,2,2,3,3,4,4,5,5,6,6],"right_children":[2,4,6,8,10,12,14,-1,-1,-1,-1,-1,-1,-1,-1],"split_conditions":[2.2E1,-1.4E0,1.4E1,1.065E2,6.5E0,1.95E1,2.8E1,-6.3624364E-5,5.0659864E-3,1.879582E-5,3.9759125E-3,-7.046806E-3,-2.5891508E-3,3.5169686E-4,-5.224179E-3],"split_indices":[27,77,85,76,25,74,28,0,0,0,0,0,0,0,0],"split_type":[0,0,0,0,0,0,0,0,0,0,0,0,0,0,0],"sum_hessian":[1.1828505E3,8.934591E2,2.8939136E2,3.086035E2,5.848556E2,1.264014E2,1.6298997E2,4.400757E1,2.6459592E2,4.9192416E2,9.293145E1,6.686112E1,5.9540276E1,1.18496284E2,4.4493687E1],"tree_param":{"num_deleted":"0","num_feature":"106","num_nodes":"15","size_leaf_vector":"1"}},{"base_weights":[-7.485774E-2,-1.7545056E-1,3.3914107E-1,-3.5234836E-1,6.555619E-3,8.722482E-2,4.781627E-1,-2.7488284E-3,-5.572047E-3,-3.2697858E-3,1.1352613E-3,3.9698044E-3,-1.2008483E-3,5.2025598E-3,-8.426836E-3],"categories":[],"categories_nodes":[],"categories_segments":[],"categories_sizes":[],"default_left":[0,0,0,0,0,0,0,0,0,0,0,0,0,0,0],"id":56,"left_children":[1,3,5,7,9,11,13,-1,-1,-1,-1,-1,-1,-1,-1],"loss_changes":[4.933768E1,3.0673735E1,8.0711E0,7.5135117E0,1.682443E1,5.4160953E0,8.725391E0,0E0,0E0,0E0,0E0,0E0,0E0,0E0,0E0],"parents":[2147483647,0,0,1,1,2,2,3,3,4,4,5,5,6,6],"right_children":[2,4,6,8,10,12,14,-1,-1,-1,-1,-1,-1,-1,-1],"split_conditions":[2.4E1,3.66E-1,4.65E-1,2.6E1,6E0,8.97E1,-1.9E0,-2.7488284E-3,-5.572047E-3,-3.2697858E-3,1.1352613E-3,3.9698044E-3,-1.2008483E-3,5.2025598E-3,-8.426836E-3],"split_indices":[27,62,55,80,28,58,25,0,0,0,0,0,0,0,0],"split_type":[0,0,0,0,0,0,0,0,0,0,0,0,0,0,0],"sum_hessian":[1.1822827E3,9.5163257E2,2.306501E2,4.8211414E2,4.6951846E2,8.260034E1,1.4804976E2,3.515275E2,1.3058665E2,1.1351665E2,3.560018E2,3.2750557E1,4.984978E1,1.4406476E2,3.9849966E0],"tree_param":{"num_deleted":"0","num_feature":"106","num_nodes":"15","size_leaf_vector":"1"}},{"base_weights":[7.485772E-2,1.7545055E-1,-3.3914107E-1,3.5234833E-1,-6.555639E-3,-8.722481E-2,-4.7816274E-1,2.7488281E-3,5.572047E-3,3.2697853E-3,-1.1352614E-3,-3.9698044E-3,1.2008484E-3,-5.2025598E-3,8.426836E-3],"categories":[],"categories_nodes":[],"categories_segments":[],"categories_sizes":[],"default_left":[0,0,0,0,0,0,0,0,0,0,0,0,0,0,0],"id":57,"left_children":[1,3,5,7,9,11,13,-1,-1,-1,-1,-1,-1,-1,-1],"loss_changes":[4.9337673E1,3.0673738E1,8.0710945E0,7.5135193E0,1.6824427E1,5.4160953E0,8.725395E0,0E0,0E0,0E0,0E0,0E0,0E0,0E0,0E0],"parents":[2147483647,0,0,1,1,2,2,3,3,4,4,5,5,6,6],"right_children":[2,4,6,8,10,12,14,-1,-1,-1,-1,-1,-1,-1,-1],"split_conditions":[2.4E1,3.66E-1,4.65E-1,2.6E1,6E0,8.97E1,-1.9E0,2.7488281E-3,5.572047E-3,3.2697853E-3,-1.1352614E-3,-3.9698044E-3,1.2008484E-3,-5.2025598E-3,8.426836E-3],"split_indices":[27,62,55,80,28,58,25,0,0,0,0,0,0,0,0],"split_type":[0,0,0,0,0,0,0,0,0,0,0,0,0,0,0],"sum_hessian":[1.1822827E3,9.516326E2,2.306501E2,4.8211414E2,4.6951846E2,8.260034E1,1.4804976E2,3.5152747E2,1.3058665E2,1.1351665E2,3.5600183E2,3.2750557E1,4.984978E1,1.4406476E2,3.9849966E0],"tree_param":{"num_deleted":"0","num_feature":"106","num_nodes":"15","size_leaf_vector":"1"}},{"base_weights":[-7.41575E-2,-1.893503E-1,2.81101E-1,-6.4886026E-2,-4.2921486E-1,4.112842E-1,1.7730998E-2,-3.4996849E-3,-4.6691177E-5,1.6008071E-3,-4.7171353E-3,-2.5820446E-3,4.722327E-3,-1.2657166E-3,5.368698E-3],"categories":[],"categories_nodes":[],"categories_segments":[],"categories_sizes":[],"default_left":[0,0,0,0,0,0,0,0,0,0,0,0,0,0,0],"id":58,"left_children":[1,3,5,7,9,11,13,-1,-1,-1,-1,-1,-1,-1,-1],"loss_changes":[4.845156E1,2.6652508E1,9.935215E0,1.0119078E1,7.717163E0,8.038601E0,7.332187E0,0E0,0E0,0E0,0E0,0E0,0E0,0E0,0E0],"parents":[2147483647,0,0,1,1,2,2,3,3,4,4,5,5,6,6],"right_children":[2,4,6,8,10,12,14,-1,-1,-1,-1,-1,-1,-1,-1],"split_conditions":[2.2E1,1.9E1,1.9E1,2E0,7E0,4.5E0,2.8E1,-3.4996849E-3,-4.6691177E-5,1.6008071E-3,-4.7171353E-3,-2.5820446E-3,4.722327E-3,-1.2657166E-3,5.368698E-3],"split_indices":[27,80,80,105,101,20,85,0,0,0,0,0,0,0,0],"split_type":[0,0,0,0,0,0,0,0,0,0,0,0,0,0,0],"sum_hessian":[1.1816619E3,8.9267755E2,2.889843E2,5.8855194E2,3.0412558E2,1.9301552E2,9.596879E1,1.017987E2,4.8675327E2,2.0271404E1,2.838542E2,1.58353815E1,1.7718015E2,7.568669E1,2.0282097E1],"tree_param":{"num_deleted":"0","num_feature":"106","num_nodes":"15","size_leaf_vector":"1"}},{"base_weights":[7.41575E-2,1.893503E-1,-2.8110096E-1,6.488602E-2,4.2921486E-1,-4.1128418E-1,-1.7730989E-2,3.4996849E-3,4.6691068E-5,-1.600807E-3,4.7171353E-3,2.5820446E-3,-4.722327E-3,1.2657166E-3,-5.368698E-3],"categories":[],"categories_nodes":[],"categories_segments":[],"categories_sizes":[],"default_left":[0,0,0,0,0,0,0,0,0,0,0,0,0,0,0],"id":59,"left_children":[1,3,5,7,9,11,13,-1,-1,-1,-1,-1,-1,-1,-1],"loss_changes":[4.845156E1,2.6652508E1,9.935213E0,1.0119078E1,7.717163E0,8.038605E0,7.3321857E0,0E0,0E0,0E0,0E0,0E0,0E0,0E0,0E0],"parents":[2147483647,0,0,1,1,2,2,3,3,4,4,5,5,6,6],"right_children":[2,4,6,8,10,12,14,-1,-1,-1,-1,-1,-1,-1,-1],"split_conditions":[2.2E1,1.9E1,1.9E1,2E0,7E0,4.5E0,2.8E1,3.4996849E-3,4.6691068E-5,-1.600807E-3,4.7171353E-3,2.5820446E-3,-4.722327E-3,1.2657166E-3,-5.368698E-3],"split_indices":[27,80,80,105,101,20,85,0,0,0,0,0,0,0,0],"split_type":[0,0,0,0,0,0,0,0,0,0,0,0,0,0,0],"sum_hessian":[1.1816619E3,8.9267755E2,2.889843E2,5.8855194E2,3.0412558E2,1.9301552E2,9.596879E1,1.017987E2,4.8675323E2,2.0271404E1,2.838542E2,1.58353815E1,1.7718015E2,7.568669E1,2.0282097E1],"tree_param":{"num_deleted":"0","num_feature":"106","num_nodes":"15","size_leaf_vector":"1"}},{"base_weights":[-7.345515E-2,-1.7226759E-1,3.336098E-1,-3.467891E-1,7.0683714E-3,8.589577E-2,4.7060427E-1,-3.8926175E-3,1.1474541E-4,-3.2297613E-3,1.1287356E-3,7.986299E-3,-3.874601E-5,5.124541E-3,-8.380183E-3],"categories":[],"categories_nodes":[],"categories_segments":[],"categories_sizes":[],"default_left":[0,0,0,0,0,0,0,0,0,0,0,0,0,0,0],"id":60,"left_children":[1,3,5,7,9,11,13,-1,-1,-1,-1,-1,-1,-1,-1],"loss_changes":[4.760278E1,2.979229E1,7.8063755E0,7.344883E0,1.6463432E1,5.3496656E0,8.571117E0,0E0,0E0,0E0,0E0,0E0,0E0,0E0,0E0],"parents":[2147483647,0,0,1,1,2,2,3,3,4,4,5,5,6,6],"right_children":[2,4,6,8,10,12,14,-1,-1,-1,-1,-1,-1,-1,-1],"split_conditions":[2.4E1,3.66E-1,4.65E-1,1.57E1,6E0,3E0,-1.9E0,-3.8926175E-3,1.1474541E-4,-3.2297613E-3,1.1287356E-3,7.986299E-3,-3.874601E-5,5.124541E-3,-8.380183E-3],"split_indices":[27,62,55,18,28,82,25,0,0,0,0,0,0,0,0],"split_type":[0,0,0,0,0,0,0,0,0,0,0,0,0,0,0],"sum_hessian":[1.1810405E3,9.508134E2,2.3022714E2,4.8140167E2,4.694117E2,8.256313E1,1.47664E2,4.3030225E2,5.1099453E1,1.134543E2,3.5595743E2,8.35243E0,7.42107E1,1.436776E2,3.9864128E0],"tree_param":{"num_deleted":"0","num_feature":"106","num_nodes":"15","size_leaf_vector":"1"}},{"base_weights":[7.345515E-2,1.722676E-1,-3.336098E-1,3.467891E-1,-7.068362E-3,-8.5895784E-2,-4.706043E-1,3.8926175E-3,-1.14745315E-4,3.2297606E-3,-1.1287351E-3,-7.986299E-3,3.874585E-5,-5.124541E-3,8.380183E-3],"categories":[],"categories_nodes":[],"categories_segments":[],"categories_sizes":[],"default_left":[0,0,0,0,0,0,0,0,0,0,0,0,0,0,0],"id":61,"left_children":[1,3,5,7,9,11,13,-1,-1,-1,-1,-1,-1,-1,-1],"loss_changes":[4.7602787E1,2.9792292E1,7.8063774E0,7.344887E0,1.646342E1,5.3496647E0,8.571117E0,0E0,0E0,0E0,0E0,0E0,0E0,0E0,0E0],"parents":[2147483647,0,0,1,1,2,2,3,3,4,4,5,5,6,6],"right_children":[2,4,6,8,10,12,14,-1,-1,-1,-1,-1,-1,-1,-1],"split_conditions":[2.4E1,3.66E-1,4.65E-1,1.57E1,6E0,3E0,-1.9E0,3.8926175E-3,-1.14745315E-4,3.2297606E-3,-1.1287351E-3,-7.986299E-3,3.874585E-5,-5.124541E-3,8.380183E-3],"split_indices":[27,62,55,18,28,82,25,0,0,0,0,0,0,0,0],"split_type":[0,0,0,0,0,0,0,0,0,0,0,0,0,0,0],"sum_hessian":[1.1810405E3,9.508134E2,2.3022714E2,4.8140167E2,4.694117E2,8.256313E1,1.47664E2,4.3030225E2,5.1099453E1,1.134543E2,3.5595743E2,8.35243E0,7.42107E1,1.436776E2,3.9864128E0],"tree_param":{"num_deleted":"0","num_feature":"106","num_nodes":"15","size_leaf_vector":"1"}},{"base_weights":[-7.276044E-2,-1.858656E-1,2.7632874E-1,-4.2056152E-1,-6.194615E-2,4.8403203E-1,1.1375278E-1,1.5110694E-4,-4.9297796E-3,-2.0196096E-3,8.4377197E-4,5.559809E-3,-1.766644E-3,-3.8458352E-4,5.116998E-3],"categories":[],"categories_nodes":[],"categories_segments":[],"categories_sizes":[],"default_left":[0,0,0,0,0,0,0,0,0,0,0,0,0,0,0],"id":62,"left_children":[1,3,5,7,9,11,13,-1,-1,-1,-1,-1,-1,-1,-1],"loss_changes":[4.669795E1,2.594256E1,9.720961E0,9.736443E0,1.20131035E1,6.1261024E0,9.935531E0,0E0,0E0,0E0,0E0,0E0,0E0,0E0,0E0],"parents":[2147483647,0,0,1,1,2,2,3,3,4,4,5,5,6,6],"right_children":[2,4,6,8,10,12,14,-1,-1,-1,-1,-1,-1,-1,-1],"split_conditions":[2.2E1,-1.4E0,1.4E1,1.065E2,1.3E1,5.04E-1,2.8E1,1.5110694E-4,-4.9297796E-3,-2.0196096E-3,8.4377197E-4,5.559809E-3,-1.766644E-3,-3.8458352E-4,5.116998E-3],"split_indices":[27,77,85,76,33,59,28,0,0,0,0,0,0,0,0],"split_type":[0,0,0,0,0,0,0,0,0,0,0,0,0,0,0],"sum_hessian":[1.1804111E3,8.9190186E2,2.8850928E2,3.0736926E2,5.845326E2,1.2580565E2,1.6270364E2,4.3921272E1,2.63448E2,2.9851114E2,2.8602148E2,1.13593925E2,1.2211721E1,1.18342186E2,4.4361458E1],"tree_param":{"num_deleted":"0","num_feature":"106","num_nodes":"15","size_leaf_vector":"1"}},{"base_weights":[7.2760426E-2,1.8586557E-1,-2.7632874E-1,4.205615E-1,6.1946128E-2,-4.8403203E-1,-1.13752775E-1,-1.5110672E-4,4.9297796E-3,2.0196096E-3,-8.4377226E-4,-5.559809E-3,1.7666441E-3,3.8458366E-4,-5.1169978E-3],"categories":[],"categories_nodes":[],"categories_segments":[],"categories_sizes":[],"default_left":[0,0,0,0,0,0,0,0,0,0,0,0,0,0,0],"id":63,"left_children":[1,3,5,7,9,11,13,-1,-1,-1,-1,-1,-1,-1,-1],"loss_changes":[4.669794E1,2.5942556E1,9.720961E0,9.736443E0,1.2013104E1,6.1261024E0,9.935532E0,0E0,0E0,0E0,0E0,0E0,0E0,0E0,0E0],"parents":[2147483647,0,0,1,1,2,2,3,3,4,4,5,5,6,6],"right_children":[2,4,6,8,10,12,14,-1,-1,-1,-1,-1,-1,-1,-1],"split_conditions":[2.2E1,-1.4E0,1.4E1,1.065E2,1.3E1,5.04E-1,2.8E1,-1.5110672E-4,4.9297796E-3,2.0196096E-3,-8.4377226E-4,-5.559809E-3,1.7666441E-3,3.8458366E-4,-5.1169978E-3],"split_indices":[27,77,85,76,33,59,28,0,0,0,0,0,0,0,0],"split_type":[0,0,0,0,0,0,0,0,0,0,0,0,0,0,0],"sum_hessian":[1.1804111E3,8.9190186E2,2.8850928E2,3.0736926E2,5.845326E2,1.2580565E2,1.6270364E2,4.3921272E1,2.63448E2,2.9851114E2,2.8602148E2,1.13593925E2,1.2211721E1,1.18342186E2,4.4361458E1],"tree_param":{"num_deleted":"0","num_feature":"106","num_nodes":"15","size_leaf_vector":"1"}},{"base_weights":[-7.2067425E-2,-1.6904743E-1,3.278238E-1,-4.3685645E-2,-4.1260552E-1,8.315933E-2,4.6346337E-1,4.1983294E-4,-2.6388008E-3,7.636688E-3,-4.315223E-3,-4.764754E-4,5.653892E-3,5.0499705E-3,-8.305406E-3],"categories":[],"categories_nodes":[],"categories_segments":[],"categories_sizes":[],"default_left":[0,0,0,0,0,0,0,0,0,0,0,0,0,0,0],"id":64,"left_children":[1,3,5,7,9,11,13,-1,-1,-1,-1,-1,-1,-1,-1],"loss_changes":[4.5849075E1,2.9018747E1,7.6212616E0,1.1875698E1,7.5175858E0,5.296597E0,8.388285E0,0E0,0E0,0E0,0E0,0E0,0E0,0E0,0E0],"parents":[2147483647,0,0,1,1,2,2,3,3,4,4,5,5,6,6],"right_children":[2,4,6,8,10,12,14,-1,-1,-1,-1,-1,-1,-1,-1],"split_conditions":[2.4E1,1.9E1,4.65E-1,1.6E1,9.4E0,1.58E1,-1.9E0,4.1983294E-4,-2.6388008E-3,7.636688E-3,-4.315223E-3,-4.764754E-4,5.653892E-3,5.0499705E-3,-8.305406E-3],"split_indices":[27,80,55,88,60,18,25,0,0,0,0,0,0,0,0],"split_type":[0,0,0,0,0,0,0,0,0,0,0,0,0,0,0],"sum_hessian":[1.1798134E3,9.500003E2,2.2981299E2,6.2796155E2,3.2203876E2,8.254063E1,1.4727235E2,4.5265915E2,1.7530243E2,4.473912E0,3.1756482E2,6.56374E1,1.6903225E1,1.4328313E2,3.9892228E0],"tree_param":{"num_deleted":"0","num_feature":"106","num_nodes":"15","size_leaf_vector":"1"}},{"base_weights":[7.206744E-2,1.6904745E-1,-3.278238E-1,4.3685663E-2,4.1260555E-1,-8.315934E-2,-4.6346337E-1,-4.1983277E-4,2.6388008E-3,-7.6366886E-3,4.315223E-3,4.7647516E-4,-5.653892E-3,-5.0499705E-3,8.305406E-3],"categories":[],"categories_nodes":[],"categories_segments":[],"categories_sizes":[],"default_left":[0,0,0,0,0,0,0,0,0,0,0,0,0,0,0],"id":65,"left_children":[1,3,5,7,9,11,13,-1,-1,-1,-1,-1,-1,-1,-1],"loss_changes":[4.584908E1,2.9018747E1,7.6212616E0,1.1875698E1,7.517582E0,5.2965965E0,8.388283E0,0E0,0E0,0E0,0E0,0E0,0E0,0E0,0E0],"parents":[2147483647,0,0,1,1,2,2,3,3,4,4,5,5,6,6],"right_children":[2,4,6,8,10,12,14,-1,-1,-1,-1,-1,-1,-1,-1],"split_conditions":[2.4E1,1.9E1,4.65E-1,1.6E1,9.4E0,1.58E1,-1.9E0,-4.1983277E-4,2.6388008E-3,-7.6366886E-3,4.315223E-3,4.7647516E-4,-5.653892E-3,-5.0499705E-3,8.305406E-3],"split_indices":[27,80,55,88,60,18,25,0,0,0,0,0,0,0,0],"split_type":[0,0,0,0,0,0,0,0,0,0,0,0,0,0,0],"sum_hessian":[1.1798134E3,9.500003E2,2.2981299E2,6.2796155E2,3.2203876E2,8.254063E1,1.4727235E2,4.5265915E2,1.7530243E2,4.473912E0,3.1756482E2,6.56374E1,1.6903225E1,1.4328313E2,3.9892228E0],"tree_param":{"num_deleted":"0","num_feature":"106","num_nodes":"15","size_leaf_vector":"1"}},{"base_weights":[-7.138492E-2,-1.8249428E-1,2.7174056E-1,-8.514431E-2,-4.7291434E-1,4.765223E-1,1.1174794E-1,-1.7475635E-3,7.786469E-4,5.5415127E-3,-5.108466E-3,6.824147E-3,2.3826556E-3,-3.8364402E-4,5.0474657E-3],"categories":[],"categories_nodes":[],"categories_segments":[],"categories_sizes":[],"default_left":[0,0,0,0,0,0,0,0,0,0,0,0,0,0,0],"id":66,"left_children":[1,3,5,7,9,11,13,-1,-1,-1,-1,-1,-1,-1,-1],"loss_changes":[4.5041904E1,2.518066E1,9.417843E0,9.790951E0,8.9995575E0,6.042082E0,9.670208E0,0E0,0E0,0E0,0E0,0E0,0E0,0E0,0E0],"parents":[2147483647,0,0,1,1,2,2,3,3,4,4,5,5,6,6],"right_children":[2,4,6,8,10,12,14,-1,-1,-1,-1,-1,-1,-1,-1],"split_conditions":[2.2E1,2.2E1,1.4E1,1.7E1,4.28E-1,1.95E1,2.8E1,-1.7475635E-3,7.786469E-4,5.5415127E-3,-5.108466E-3,6.824147E-3,2.3826556E-3,-3.8364402E-4,5.0474657E-3],"split_indices":[27,80,85,33,59,74,28,0,0,0,0,0,0,0,0],"split_type":[0,0,0,0,0,0,0,0,0,0,0,0,0,0,0],"sum_hessian":[1.1791432E3,8.910693E2,2.8807394E2,6.6833417E2,2.227351E2,1.2548352E2,1.6259041E2,4.312101E2,2.3712408E2,7.448488E0,2.1528662E2,6.631362E1,5.91699E1,1.1830445E2,4.4285965E1],"tree_param":{"num_deleted":"0","num_feature":"106","num_nodes":"15","size_leaf_vector":"1"}},{"base_weights":[7.138491E-2,1.8249425E-1,-2.7174056E-1,8.514428E-2,4.7291437E-1,-4.7652233E-1,-1.11747935E-1,1.747563E-3,-7.78647E-4,-5.5415127E-3,5.108466E-3,-6.824147E-3,-2.3826559E-3,3.8364404E-4,-5.0474657E-3],"categories":[],"categories_nodes":[],"categories_segments":[],"categories_sizes":[],"default_left":[0,0,0,0,0,0,0,0,0,0,0,0,0,0,0],"id":67,"left_children":[1,3,5,7,9,11,13,-1,-1,-1,-1,-1,-1,-1,-1],"loss_changes":[4.50419E1,2.5180664E1,9.417845E0,9.790951E0,8.999561E0,6.0420876E0,9.670208E0,0E0,0E0,0E0,0E0,0E0,0E0,0E0,0E0],"parents":[2147483647,0,0,1,1,2,2,3,3,4,4,5,5,6,6],"right_children":[2,4,6,8,10,12,14,-1,-1,-1,-1,-1,-1,-1,-1],"split_conditions":[2.2E1,2.2E1,1.4E1,1.7E1,4.28E-1,1.95E1,2.8E1,1.747563E-3,-7.78647E-4,-5.5415127E-3,5.108466E-3,-6.824147E-3,-2.3826559E-3,3.8364404E-4,-5.0474657E-3],"split_indices":[27,80,85,33,59,74,28,0,0,0,0,0,0,0,0],"split_type":[0,0,0,0,0,0,0,0,0,0,0,0,0,0,0],"sum_hessian":[1.1791432E3,8.9106934E2,2.8807394E2,6.6833417E2,2.2273512E2,1.2548352E2,1.6259041E2,4.312101E2,2.3712408E2,7.4484878E0,2.1528662E2,6.631362E1,5.91699E1,1.1830445E2,4.4285965E1],"tree_param":{"num_deleted":"0","num_feature":"106","num_nodes":"15","size_leaf_vector":"1"}},{"base_weights":[-7.069914E-2,-1.8076032E-1,2.692698E-1,-4.1062072E-1,-5.9783727E-2,3.8933367E-1,5.9614093E-5,2.0077155E-4,-4.8238323E-3,1.8974368E-5,-3.8351056E-3,2.547513E-3,6.563227E-3,-1.4602691E-3,5.1118685E-3],"categories":[],"categories_nodes":[],"categories_segments":[],"categories_sizes":[],"default_left":[0,0,0,0,0,0,0,0,0,0,0,0,0,0,0],"id":68,"left_children":[1,3,5,7,9,11,13,-1,-1,-1,-1,-1,-1,-1,-1],"loss_changes":[4.4182167E1,2.4769627E1,9.336727E0,9.507191E0,1.1688814E1,7.010895E0,6.801874E0,0E0,0E0,0E0,0E0,0E0,0E0,0E0,0E0],"parents":[2147483647,0,0,1,1,2,2,3,3,4,4,5,5,6,6],"right_children":[2,4,6,8,10,12,14,-1,-1,-1,-1,-1,-1,-1,-1],"split_conditions":[2.2E1,-1.4E0,2.1E1,1.065E2,6.5E0,1.9E1,2.8E1,2.0077155E-4,-4.8238323E-3,1.8974368E-5,-3.8351056E-3,2.547513E-3,6.563227E-3,-1.4602691E-3,5.1118685E-3],"split_indices":[27,77,81,76,25,35,85,0,0,0,0,0,0,0,0],"split_type":[0,0,0,0,0,0,0,0,0,0,0,0,0,0,0],"sum_hessian":[1.1784918E3,8.906289E2,2.8786295E2,3.0628357E2,5.8434534E2,1.9876872E2,8.9094215E1,4.3846954E1,2.624366E2,4.9166104E2,9.26843E1,1.3345276E2,6.531597E1,6.984574E1,1.9248478E1],"tree_param":{"num_deleted":"0","num_feature":"106","num_nodes":"15","size_leaf_vector":"1"}},{"base_weights":[7.069914E-2,1.8076032E-1,-2.6926976E-1,4.1062072E-1,5.9783716E-2,-3.8933367E-1,-5.962038E-5,-2.0077155E-4,4.8238323E-3,-1.8974477E-5,3.8351056E-3,-2.5475125E-3,-6.563227E-3,1.4602691E-3,-5.1118685E-3],"categories":[],"categories_nodes":[],"categories_segments":[],"categories_sizes":[],"default_left":[0,0,0,0,0,0,0,0,0,0,0,0,0,0,0],"id":69,"left_children":[1,3,5,7,9,11,13,-1,-1,-1,-1,-1,-1,-1,-1],"loss_changes":[4.4182167E1,2.476963E1,9.336725E0,9.5071945E0,1.1688815E1,7.010893E0,6.8018737E0,0E0,0E0,0E0,0E0,0E0,0E0,0E0,0E0],"parents":[2147483647,0,0,1,1,2,2,3,3,4,4,5,5,6,6],"right_children":[2,4,6,8,10,12,14,-1,-1,-1,-1,-1,-1,-1,-1],"split_conditions":[2.2E1,-1.4E0,2.1E1,1.065E2,6.5E0,1.9E1,2.8E1,-2.0077155E-4,4.8238323E-3,-1.8974477E-5,3.8351056E-3,-2.5475125E-3,-6.563227E-3,1.4602691E-3,-5.1118685E-3],"split_indices":[27,77,81,76,25,35,85,0,0,0,0,0,0,0,0],"split_type":[0,0,0,0,0,0,0,0,0,0,0,0,0,0,0],"sum_hessian":[1.1784918E3,8.906289E2,2.8786295E2,3.0628357E2,5.8434534E2,1.9876872E2,8.9094215E1,4.3846954E1,2.624366E2,4.9166104E2,9.2684296E1,1.3345276E2,6.531597E1,6.984574E1,1.924848E1],"tree_param":{"num_deleted":"0","num_feature":"106","num_nodes":"15","size_leaf_vector":"1"}},{"base_weights":[-7.003126E-2,-1.6443534E-1,3.197993E-1,-3.3362648E-1,8.836367E-3,4.087359E-1,-4.5701426E-2,-3.7552365E-3,1.8795657E-4,-3.145642E-3,1.1239998E-3,5.6314766E-3,5.379142E-4,5.2267406E-3,-3.1677862E-3],"categories":[],"categories_nodes":[],"categories_segments":[],"categories_sizes":[],"default_left":[0,0,0,0,0,0,0,0,0,0,0,0,0,0,0],"id":70,"left_children":[1,3,5,7,9,11,13,-1,-1,-1,-1,-1,-1,-1,-1],"loss_changes":[4.3433445E1,2.7842293E1,7.4999695E0,7.101837E0,1.5781229E1,1.0120462E1,7.2438803E0,0E0,0E0,0E0,0E0,0E0,0E0,0E0,0E0],"parents":[2147483647,0,0,1,1,2,2,3,3,4,4,5,5,6,6],"right_children":[2,4,6,8,10,12,14,-1,-1,-1,-1,-1,-1,-1,-1],"split_conditions":[2.4E1,3.66E-1,2.5E1,1.57E1,6E0,1.35E1,1E1,-3.7552365E-3,1.8795657E-4,-3.145642E-3,1.1239998E-3,5.6314766E-3,5.379142E-4,5.2267406E-3,-3.1677862E-3],"split_indices":[27,62,101,18,28,60,82,0,0,0,0,0,0,0,0],"split_type":[0,0,0,0,0,0,0,0,0,0,0,0,0,0,0],"sum_hessian":[1.1777766E3,9.486284E2,2.2914824E2,4.7949756E2,4.6913083E2,1.8420717E2,4.4941074E1,4.2849146E2,5.1006115E1,1.1329728E2,3.5583356E2,1.2795585E2,5.6251316E1,1.4212717E1,3.0728355E1],"tree_param":{"num_deleted":"0","num_feature":"106","num_nodes":"15","size_leaf_vector":"1"}},{"base_weights":[7.003126E-2,1.6443533E-1,-3.197993E-1,3.3362648E-1,-8.836361E-3,-4.087359E-1,4.570142E-2,3.7552365E-3,-1.8795632E-4,3.1456426E-3,-1.1239998E-3,-5.6314766E-3,-5.3791417E-4,-5.2267406E-3,3.1677862E-3],"categories":[],"categories_nodes":[],"categories_segments":[],"categories_sizes":[],"default_left":[0,0,0,0,0,0,0,0,0,0,0,0,0,0,0],"id":71,"left_children":[1,3,5,7,9,11,13,-1,-1,-1,-1,-1,-1,-1,-1],"loss_changes":[4.3433445E1,2.7842289E1,7.4999657E0,7.101837E0,1.5781233E1,1.0120466E1,7.2438807E0,0E0,0E0,0E0,0E0,0E0,0E0,0E0,0E0],"parents":[2147483647,0,0,1,1,2,2,3,3,4,4,5,5,6,6],"right_children":[2,4,6,8,10,12,14,-1,-1,-1,-1,-1,-1,-1,-1],"split_conditions":[2.4E1,3.66E-1,2.5E1,1.57E1,6E0,1.35E1,1E1,3.7552365E-3,-1.8795632E-4,3.1456426E-3,-1.1239998E-3,-5.6314766E-3,-5.3791417E-4,-5.2267406E-3,3.1677862E-3],"split_indices":[27,62,101,18,28,60,82,0,0,0,0,0,0,0,0],"split_type":[0,0,0,0,0,0,0,0,0,0,0,0,0,0,0],"sum_hessian":[1.1777766E3,9.486284E2,2.2914824E2,4.7949756E2,4.6913083E2,1.8420717E2,4.4941074E1,4.2849146E2,5.1006115E1,1.1329728E2,3.5583356E2,1.2795585E2,5.6251316E1,1.4212716E1,3.0728355E1],"tree_param":{"num_deleted":"0","num_feature":"106","num_nodes":"15","size_leaf_vector":"1"}},{"base_weights":[-6.936674E-2,-1.628718E-1,3.1693065E-1,-4.112013E-2,-4.0036678E-1,4.0512523E-1,-4.5208253E-2,4.2711842E-4,-2.5674072E-3,7.5963046E-3,-4.191066E-3,5.584023E-3,5.327018E-4,5.183406E-3,-3.1365012E-3],"categories":[],"categories_nodes":[],"categories_segments":[],"categories_sizes":[],"default_left":[0,0,0,0,0,0,0,0,0,0,0,0,0,0,0],"id":72,"left_children":[1,3,5,7,9,11,13,-1,-1,-1,-1,-1,-1,-1,-1],"loss_changes":[4.2606693E1,2.742994E1,7.3622E0,1.1373845E1,7.308834E0,9.947861E0,7.1110415E0,0E0,0E0,0E0,0E0,0E0,0E0,0E0,0E0],"parents":[2147483647,0,0,1,1,2,2,3,3,4,4,5,5,6,6],"right_children":[2,4,6,8,10,12,14,-1,-1,-1,-1,-1,-1,-1,-1],"split_conditions":[2.4E1,1.9E1,2.5E1,1.6E1,9.4E0,1.35E1,1E1,4.2711842E-4,-2.5674072E-3,7.5963046E-3,-4.191066E-3,5.584023E-3,5.327018E-4,5.183406E-3,-3.1365012E-3],"split_indices":[27,80,101,88,60,60,82,0,0,0,0,0,0,0,0],"split_type":[0,0,0,0,0,0,0,0,0,0,0,0,0,0,0],"sum_hessian":[1.1771334E3,9.481965E2,2.2893692E2,6.2762036E2,3.2057608E2,1.8400581E2,4.4931114E1,4.52495E2,1.7512538E2,4.468041E0,3.1610803E2,1.27762276E2,5.624354E1,1.4196665E1,3.0734447E1],"tree_param":{"num_deleted":"0","num_feature":"106","num_nodes":"15","size_leaf_vector":"1"}},{"base_weights":[6.936672E-2,1.6287178E-1,-3.1693065E-1,4.1120123E-2,4.0036675E-1,-4.0512523E-1,4.5208257E-2,-4.2711856E-4,2.5674072E-3,-7.5963046E-3,4.191065E-3,-5.584023E-3,-5.3270155E-4,-5.183406E-3,3.1365012E-3],"categories":[],"categories_nodes":[],"categories_segments":[],"categories_sizes":[],"default_left":[0,0,0,0,0,0,0,0,0,0,0,0,0,0,0],"id":73,"left_children":[1,3,5,7,9,11,13,-1,-1,-1,-1,-1,-1,-1,-1],"loss_changes":[4.2606686E1,2.7429934E1,7.3622E0,1.1373847E1,7.308838E0,9.947861E0,7.1110415E0,0E0,0E0,0E0,0E0,0E0,0E0,0E0,0E0],"parents":[2147483647,0,0,1,1,2,2,3,3,4,4,5,5,6,6],"right_children":[2,4,6,8,10,12,14,-1,-1,-1,-1,-1,-1,-1,-1],"split_conditions":[2.4E1,1.9E1,2.5E1,1.6E1,9.4E0,1.35E1,1E1,-4.2711856E-4,2.5674072E-3,-7.5963046E-3,4.191065E-3,-5.584023E-3,-5.3270155E-4,-5.183406E-3,3.1365012E-3],"split_indices":[27,80,101,88,60,60,82,0,0,0,0,0,0,0,0],"split_type":[0,0,0,0,0,0,0,0,0,0,0,0,0,0,0],"sum_hessian":[1.1771334E3,9.481965E2,2.2893692E2,6.2762036E2,3.2057608E2,1.8400581E2,4.4931114E1,4.52495E2,1.7512538E2,4.4680414E0,3.1610803E2,1.27762276E2,5.624354E1,1.4196664E1,3.0734447E1],"tree_param":{"num_deleted":"0","num_feature":"106","num_nodes":"15","size_leaf_vector":"1"}},{"base_weights":[-6.870495E-2,-1.7591687E-1,2.627787E-1,-8.136389E-2,-4.5942417E-1,-6.646526E-1,2.9649696E-1,-1.69516E-3,7.8884006E-4,1.1632695E-3,-5.2802055E-3,8.029893E-4,-9.072801E-3,4.8750895E-3,1.2654176E-3],"categories":[],"categories_nodes":[],"categories_segments":[],"categories_sizes":[],"default_left":[0,0,0,0,0,0,0,0,0,0,0,0,0,0,0],"id":74,"left_children":[1,3,5,7,9,11,13,-1,-1,-1,-1,-1,-1,-1,-1],"loss_changes":[4.1891758E1,2.3828339E1,9.208124E0,9.46166E0,8.846893E0,1.9557467E0,8.987154E0,0E0,0E0,0E0,0E0,0E0,0E0,0E0,0E0],"parents":[2147483647,0,0,1,1,2,2,3,3,4,4,5,5,6,6],"right_children":[2,4,6,8,10,12,14,-1,-1,-1,-1,-1,-1,-1,-1],"split_conditions":[2.2E1,2.2E1,5E0,1.7E1,4.36E-1,1.097E2,1.4E1,-1.69516E-3,7.8884006E-4,1.1632695E-3,-5.2802055E-3,8.029893E-4,-9.072801E-3,4.8750895E-3,1.2654176E-3],"split_indices":[27,80,44,33,59,76,88,0,0,0,0,0,0,0,0],"split_type":[0,0,0,0,0,0,0,0,0,0,0,0,0,0,0],"sum_hessian":[1.1764539E3,8.892973E2,2.871566E2,6.678489E2,2.214484E2,9.417359E0,2.777392E2,4.3080554E2,2.3704335E2,2.3501022E1,1.9794737E2,2.4780183E0,6.9393415E0,1.29889E2,1.478502E2],"tree_param":{"num_deleted":"0","num_feature":"106","num_nodes":"15","size_leaf_vector":"1"}},{"base_weights":[6.870495E-2,1.7591687E-1,-2.627787E-1,8.1363864E-2,4.5942423E-1,6.646526E-1,-2.9649696E-1,1.6951596E-3,-7.8883965E-4,-1.1632696E-3,5.280206E-3,-8.0298935E-4,9.072801E-3,-4.8750895E-3,-1.2654176E-3],"categories":[],"categories_nodes":[],"categories_segments":[],"categories_sizes":[],"default_left":[0,0,0,0,0,0,0,0,0,0,0,0,0,0,0],"id":75,"left_children":[1,3,5,7,9,11,13,-1,-1,-1,-1,-1,-1,-1,-1],"loss_changes":[4.1891758E1,2.3828348E1,9.208124E0,9.461654E0,8.846897E0,1.9557467E0,8.987154E0,0E0,0E0,0E0,0E0,0E0,0E0,0E0,0E0],"parents":[2147483647,0,0,1,1,2,2,3,3,4,4,5,5,6,6],"right_children":[2,4,6,8,10,12,14,-1,-1,-1,-1,-1,-1,-1,-1],"split_conditions":[2.2E1,2.2E1,5E0,1.7E1,4.36E-1,1.097E2,1.4E1,1.6951596E-3,-7.8883965E-4,-1.1632696E-3,5.280206E-3,-8.0298935E-4,9.072801E-3,-4.8750895E-3,-1.2654176E-3],"split_indices":[27,80,44,33,59,76,88,0,0,0,0,0,0,0,0],"split_type":[0,0,0,0,0,0,0,0,0,0,0,0,0,0,0],"sum_hessian":[1.1764539E3,8.892973E2,2.871566E2,6.678489E2,2.214484E2,9.417359E0,2.777392E2,4.3080557E2,2.3704335E2,2.3501022E1,1.9794737E2,2.478018E0,6.9393415E0,1.29889E2,1.478502E2],"tree_param":{"num_deleted":"0","num_feature":"106","num_nodes":"15","size_leaf_vector":"1"}},{"base_weights":[-6.8063974E-2,-1.7425463E-1,2.6034698E-1,-8.056069E-2,-4.5564255E-1,4.6178442E-1,1.0353628E-1,-1.6785645E-3,7.809627E-4,1.1518078E-3,-5.2380376E-3,5.3355205E-3,-1.937426E-3,-4.415558E-4,4.912629E-3],"categories":[],"categories_nodes":[],"categories_segments":[],"categories_sizes":[],"default_left":[0,0,0,0,0,0,0,0,0,0,0,0,0,0,0],"id":76,"left_children":[1,3,5,7,9,11,13,-1,-1,-1,-1,-1,-1,-1,-1],"loss_changes":[4.108427E1,2.3423267E1,9.047298E0,9.275688E0,8.700363E0,6.019068E0,9.366588E0,0E0,0E0,0E0,0E0,0E0,0E0,0E0,0E0],"parents":[2147483647,0,0,1,1,2,2,3,3,4,4,5,5,6,6],"right_children":[2,4,6,8,10,12,14,-1,-1,-1,-1,-1,-1,-1,-1],"split_conditions":[2.2E1,2.2E1,1.4E1,1.7E1,4.36E-1,5.04E-1,2.8E1,-1.6785645E-3,7.809627E-4,1.1518078E-3,-5.2380376E-3,5.3355205E-3,-1.937426E-3,-4.415558E-4,4.912629E-3],"split_indices":[27,80,85,33,59,59,28,0,0,0,0,0,0,0,0],"split_type":[0,0,0,0,0,0,0,0,0,0,0,0,0,0,0],"sum_hessian":[1.1757706E3,8.8883734E2,2.8693335E2,6.6777435E2,2.2106299E2,1.24743835E2,1.6218953E2,4.3072443E2,2.370499E2,2.3507458E1,1.9755553E2,1.12602135E2,1.2141701E1,1.1809224E2,4.4097286E1],"tree_param":{"num_deleted":"0","num_feature":"106","num_nodes":"15","size_leaf_vector":"1"}},{"base_weights":[6.806397E-2,1.7425461E-1,-2.6034698E-1,8.056069E-2,4.556425E-1,-4.6178442E-1,-1.03536285E-1,1.6785645E-3,-7.8096264E-4,-1.1518078E-3,5.238037E-3,-5.3355205E-3,1.937426E-3,4.4155578E-4,-4.912629E-3],"categories":[],"categories_nodes":[],"categories_segments":[],"categories_sizes":[],"default_left":[0,0,0,0,0,0,0,0,0,0,0,0,0,0,0],"id":77,"left_children":[1,3,5,7,9,11,13,-1,-1,-1,-1,-1,-1,-1,-1],"loss_changes":[4.1084267E1,2.3423264E1,9.047297E0,9.275688E0,8.700359E0,6.0190697E0,9.366588E0,0E0,0E0,0E0,0E0,0E0,0E0,0E0,0E0],"parents":[2147483647,0,0,1,1,2,2,3,3,4,4,5,5,6,6],"right_children":[2,4,6,8,10,12,14,-1,-1,-1,-1,-1,-1,-1,-1],"split_conditions":[2.2E1,2.2E1,1.4E1,1.7E1,4.36E-1,5.04E-1,2.8E1,1.6785645E-3,-7.8096264E-4,-1.1518078E-3,5.238037E-3,-5.3355205E-3,1.937426E-3,4.4155578E-4,-4.912629E-3],"split_indices":[27,80,85,33,59,59,28,0,0,0,0,0,